{"learner":{"attributes":{"scikit_learn":"{\"use_label_encoder\": false, \"n_estimators\": 17, \"objective\": \"multi:softprob\", \"max_depth\": 3, \"max_leaves\": null, \"max_bin\": null, \"grow_policy\": null, \"learning_rate\": 0.324, \"verbosity\": null, \"booster\": null, \"tree_method\": null, \"gamma\": null, \"min_child_weight\": null, \"max_delta_step\": null, \"subsample\": null, \"sampling_method\": null, \"colsample_bytree\": null, \"colsample_bylevel\": null, \"colsample_bynode\": null, \"reg_alpha\": null, \"reg_lambda\": null, \"scale_pos_weight\": null, \"base_score\": null, \"missing\": NaN, \"num_parallel_tree\": null, \"random_state\": null, \"n_jobs\": -1, \"monotone_constraints\": null, \"interaction_constraints\": null, \"importance_type\": \"gain\", \"gpu_id\": null, \"validate_parameters\": null, \"predictor\": null, \"enable_categorical\": false, \"feature_types\": null, \"max_cat_to_onehot\": null, \"max_cat_threshold\": null, \"eval_metric\": null, \"early_stopping_rounds\": null, \"callbacks\": null, \"classes_\": [0.0, 1.0, 2.0, 3.0, 4.0], \"kwargs\": {\"eval_metric\": \"merror\"}, \"n_classes_\": 5, \"_estimator_type\": \"classifier\"}"},"feature_names":["Sex","Age","Office SBP","Office DBP","Na","K","Creatinine","Cholesterol","Prevalent CVD","No. of HTN drugs"],"feature_types":["float","float","float","float","float","float","float","float","float","float"],"gradient_booster":{"model":{"gbtree_model_param":{"num_parallel_tree":"1","num_trees":"85","size_leaf_vector":"0"},"tree_info":[0,1,2,3,4,0,1,2,3,4,0,1,2,3,4,0,1,2,3,4,0,1,2,3,4,0,1,2,3,4,0,1,2,3,4,0,1,2,3,4,0,1,2,3,4,0,1,2,3,4,0,1,2,3,4,0,1,2,3,4,0,1,2,3,4,0,1,2,3,4,0,1,2,3,4,0,1,2,3,4,0,1,2,3,4],"trees":[{"base_weights":[-8.774614E-2,2.1275482E0,-6.2302536E-1,2.1890545E0,8.5271317E-1,1.3184079E0,2.2627065E0,1.235955E0,-0E0],"categories":[],"categories_nodes":[],"categories_segments":[],"categories_sizes":[],"default_left":[1,1,0,1,1,0,0,0,0],"id":0,"left_children":[1,3,-1,5,7,-1,-1,-1,-1],"loss_changes":[4.66207E2,4.133301E0,0E0,1.6569214E0,1.686264E0,0E0,0E0,0E0,0E0],"parents":[2147483647,0,0,1,1,3,3,4,4],"right_children":[2,4,-1,6,8,-1,-1,-1,-1],"split_conditions":[1.4025E2,1.0175E2,-2.0186022E-1,1.375E2,4.3E1,4.2716417E-1,7.331169E-1,4.0044942E-1,-0E0],"split_indices":[2,3,0,4,1,0,0,0,0],"split_type":[0,0,0,0,0,0,0,0,0],"sum_hessian":[3.9104004E2,7.5520004E1,3.1552002E2,7.136001E1,4.1600003E0,7.0400004E0,6.432001E1,2.5600002E0,1.6000001E0],"tree_param":{"num_deleted":"0","num_feature":"10","num_nodes":"9","size_leaf_vector":"0"}},{"base_weights":[-5.57086E-1,-2.7705175E-1,-6.2302536E-1,-3.399668E-1,6.589147E-1,3.2338306E-1,-4.164115E-1,1.12359546E-1,1.1538461E0],"categories":[],"categories_nodes":[],"categories_segments":[],"categories_sizes":[],"default_left":[1,1,0,1,1,0,0,0,0],"id":1,"left_children":[1,3,-1,5,7,-1,-1,-1,-1],"loss_changes":[7.0665207E0,4.7299967E0,0E0,3.8040047E0,1.2661722E0,0E0,0E0,0E0,0E0],"parents":[2147483647,0,0,1,1,3,3,4,4],"right_children":[2,4,-1,6,8,-1,-1,-1,-1],"split_conditions":[1.4025E2,1.0175E2,-2.0186022E-1,1.375E2,4.3E1,1.04776114E-1,-1.3491732E-1,3.6404494E-2,3.7384614E-1],"split_indices":[2,3,0,4,1,0,0,0,0],"split_type":[0,0,0,0,0,0,0,0,0],"sum_hessian":[3.9104004E2,7.5520004E1,3.1552002E2,7.136001E1,4.1600003E0,7.0400004E0,6.432001E1,2.5600002E0,1.6000001E0],"tree_param":{"num_deleted":"0","num_feature":"10","num_nodes":"9","size_leaf_vector":"0"}},{"base_weights":[7.7185994E-1,-6.1683214E-1,1.1051434E0,1.5039173E0,3.2347503E-1,1.8878717E0,1.2186787E0,5.349671E-1,-1.8921474E-2],"categories":[],"categories_nodes":[],"categories_segments":[],"categories_sizes":[],"default_left":[1,0,1,1,1,0,0,0,0],"id":2,"left_children":[1,-1,3,5,7,-1,-1,-1,-1],"loss_changes":[1.821288E2,0E0,9.817566E1,2.0623718E1,7.845334E0,0E0,0E0,0E0,0E0],"parents":[2147483647,0,0,2,2,3,3,4,4],"right_children":[2,-1,4,6,8,-1,-1,-1,-1],"split_conditions":[1.4025E2,-1.9985361E-1,1.6825E2,1.5225E2,1.8325E2,6.1167043E-1,3.948519E-1,1.7332935E-1,-6.1305575E-3],"split_indices":[2,0,2,2,2,0,0,0,0],"split_type":[0,0,0,0,0,0,0,0,0],"sum_hessian":[3.9104004E2,7.5520004E1,3.1552002E2,2.0832E2,1.07200005E2,8.640001E1,1.21920006E2,6.5920006E1,4.1280003E1],"tree_param":{"num_deleted":"0","num_feature":"10","num_nodes":"9","size_leaf_vector":"0"}},{"base_weights":[-3.3516985E-1,-2.0970185E-1,-5.245564E-1,-5.83524E-1,7.942812E-3,-5.419626E-1,1.7699115E-1,-6.170966E-1,-2.3605148E-1,-8.1240766E-2,7.3141485E-1,-5.712271E-1,-1.24555156E-1,-4.109589E-1,7.692307E-1],"categories":[],"categories_nodes":[],"categories_segments":[],"categories_sizes":[],"default_left":[1,1,1,1,1,1,1,0,0,0,0,0,0,0,0],"id":3,"left_children":[1,3,5,7,9,11,13,-1,-1,-1,-1,-1,-1,-1,-1],"loss_changes":[9.205635E0,1.9326103E1,1.9955101E0,8.739033E-1,9.807378E0,1.7860489E0,1.8900192E0,0E0,0E0,0E0,0E0,0E0,0E0,0E0,0E0],"parents":[2147483647,0,0,1,1,2,2,3,3,4,4,5,5,6,6],"right_children":[2,4,6,8,10,12,14,-1,-1,-1,-1,-1,-1,-1,-1],"split_conditions":[1.6175E2,1.4175E2,1.265E2,1.065E2,1.0625E2,1.1725E2,5.05E0,-1.999393E-1,-7.648068E-2,-2.6322009E-2,2.3697841E-1,-1.8507758E-1,-4.0355872E-2,-1.3315068E-1,2.4923076E-1],"split_indices":[2,2,6,6,3,3,7,0,0,0,0,0,0,0,0],"split_type":[0,0,0,0,0,0,0,0,0,0,0,0,0,0,0],"sum_hessian":[3.9104004E2,2.3648001E2,1.5456001E2,8.640001E1,1.5008002E2,1.5104001E2,3.5200002E0,7.808E1,8.320001E0,1.3440001E2,1.5680001E1,1.408E2,1.0240001E1,1.9200001E0,1.6000001E0],"tree_param":{"num_deleted":"0","num_feature":"10","num_nodes":"15","size_leaf_vector":"0"}},{"base_weights":[2.0814201E-1,-4.2598596E-1,1.1426052E0,-5.978898E-1,3.4013603E-2,4.7323504E-1,1.4510165E0,-6.2087184E-1,-3.9603958E-1,1.111111E0,-2.2421524E-2,1.4285713E0,3.8047972E-1,1.222355E0,1.7786187E0],"categories":[],"categories_nodes":[],"categories_segments":[],"categories_sizes":[],"default_left":[1,1,1,1,1,1,1,0,0,0,0,0,0,0,0],"id":4,"left_children":[1,3,5,7,9,11,13,-1,-1,-1,-1,-1,-1,-1,-1],"loss_changes":[2.3279758E2,1.8546185E1,3.2087967E1,5.4551315E-1,3.9565604E0,4.02532E0,5.9311523E0,0E0,0E0,0E0,0E0,0E0,0E0,0E0,0E0],"parents":[2147483647,0,0,1,1,2,2,3,3,4,4,5,5,6,6],"right_children":[2,4,6,8,10,12,14,-1,-1,-1,-1,-1,-1,-1,-1],"split_conditions":[1.6125E2,1.5325E2,1.6825E2,1.5075E2,2.95E1,3.75E0,1.8325E2,-2.0116247E-1,-1.2831682E-1,3.5999998E-1,-7.2645736E-3,4.6285713E-1,1.2327543E-1,3.9604303E-1,5.762725E-1],"split_indices":[2,2,2,2,1,7,2,0,0,0,0,0,0,0,0],"split_type":[0,0,0,0,0,0,0,0,0,0,0,0,0,0,0],"sum_hessian":[3.9104004E2,2.3328001E2,1.5776001E2,1.696E2,6.3680004E1,5.0560005E1,1.07200005E2,1.5040001E2,1.92E1,2.2400002E0,6.1440002E1,3.2000003E0,4.7360004E1,6.5920006E1,4.1280003E1],"tree_param":{"num_deleted":"0","num_feature":"10","num_nodes":"15","size_leaf_vector":"0"}},{"base_weights":[-8.731286E-2,1.1133593E0,-5.912627E-1,5.6406807E-2,1.1245629E0,1.1388762E0,3.3260474E-1],"categories":[],"categories_nodes":[],"categories_segments":[],"categories_sizes":[],"default_left":[1,1,0,0,1,0,0],"id":5,"left_children":[1,3,-1,-1,5,-1,-1],"loss_changes":[2.2570761E2,1.2427521E0,0E0,0E0,8.578644E-1,0E0,0E0],"parents":[2147483647,0,0,1,1,4,4],"right_children":[2,4,-1,-1,6,-1,-1],"split_conditions":[1.4025E2,9.925E1,-1.9156912E-1,1.8275805E-2,1.37E2,3.6899588E-1,1.0776393E-1],"split_indices":[2,2,0,0,6,0,0],"split_type":[0,0,0,0,0,0,0],"sum_hessian":[3.7093405E2,1.09304436E2,2.616296E2,1.2097597E0,1.0809467E2,1.0574546E2,2.3492184E0],"tree_param":{"num_deleted":"0","num_feature":"10","num_nodes":"7","size_leaf_vector":"0"}},{"base_weights":[-5.152327E-1,-2.120307E-1,-5.912627E-1,-2.734479E-1,5.003835E-1,2.6065552E-1,-3.504385E-1,4.1888073E-2,9.2968374E-1],"categories":[],"categories_nodes":[],"categories_segments":[],"categories_sizes":[],"default_left":[1,1,0,1,1,0,0,0,0],"id":6,"left_children":[1,3,-1,5,7,-1,-1,-1,-1],"loss_changes":[7.4631577E0,3.0926857E0,0E0,2.6754003E0,1.0859717E0,0E0,0E0,0E0,0E0],"parents":[2147483647,0,0,1,1,3,3,4,4],"right_children":[2,4,-1,6,8,-1,-1,-1,-1],"split_conditions":[1.4025E2,1.0175E2,-1.9156912E-1,1.375E2,7.05E1,8.445239E-2,-1.1354207E-1,1.35717355E-2,3.0121753E-1],"split_indices":[2,3,0,4,6,0,0,0,0],"split_type":[0,0,0,0,0,0,0,0,0],"sum_hessian":[3.2818512E2,6.65555E1,2.616296E2,6.1840405E1,4.715093E0,7.4906063E0,5.4349796E1,2.810758E0,1.9043349E0],"tree_param":{"num_deleted":"0","num_feature":"10","num_nodes":"9","size_leaf_vector":"0"}},{"base_weights":[5.159916E-1,-5.806691E-1,6.8778974E-1,8.56848E-1,2.646316E-1,8.892368E-1,-5.9700185E-1,4.0429737E-3,5.02967E-1],"categories":[],"categories_nodes":[],"categories_segments":[],"categories_sizes":[],"default_left":[1,0,1,1,1,0,0,0,0],"id":7,"left_children":[1,-1,3,5,7,-1,-1,-1,-1],"loss_changes":[8.597015E1,0E0,2.7897171E1,1.3737198E1,7.057892E0,0E0,0E0,0E0,0E0],"parents":[2147483647,0,0,2,2,3,3,4,4],"right_children":[2,-1,4,6,8,-1,-1,-1,-1],"split_conditions":[1.4025E2,-1.8813679E-1,1.6825E2,1.1275E2,5E-1,2.8811273E-1,-1.934286E-1,1.3099235E-3,1.629613E-1],"split_indices":[2,0,2,3,9,0,0,0,0],"split_type":[0,0,0,0,0,0,0,0,0],"sum_hessian":[4.531872E2,6.1056637E1,3.9213055E2,2.7945786E2,1.12672676E2,2.7374768E2,5.7101793E0,5.4309402E1,5.8363277E1],"tree_param":{"num_deleted":"0","num_feature":"10","num_nodes":"9","size_leaf_vector":"0"}},{"base_weights":[-2.807922E-1,-1.5740861E-1,-4.805462E-1,-5.42258E-1,3.2373827E-2,-4.9993435E-1,1.9790721E-1,-5.818695E-1,-1.7097715E-1,-1.3135421E-1,3.5840672E-1,-5.329025E-1,-7.393692E-2,-3.7236828E-1,6.7285556E-1],"categories":[],"categories_nodes":[],"categories_segments":[],"categories_sizes":[],"default_left":[1,1,1,1,1,1,1,0,0,0,0,0,0,0,0],"id":8,"left_children":[1,3,5,7,9,11,13,-1,-1,-1,-1,-1,-1,-1,-1],"loss_changes":[8.535114E0,1.5900225E1,1.8472805E0,9.57592E-1,7.871769E0,1.7794037E0,1.4447714E0,0E0,0E0,0E0,0E0,0E0,0E0,0E0,0E0],"parents":[2147483647,0,0,1,1,2,2,3,3,4,4,5,5,6,6],"right_children":[2,4,6,8,10,12,14,-1,-1,-1,-1,-1,-1,-1,-1],"split_conditions":[1.6175E2,1.4175E2,1.265E2,1.065E2,9.925E1,1.1725E2,5.05E0,-1.885257E-1,-5.5396594E-2,-4.2558767E-2,1.1612378E-1,-1.7266041E-1,-2.3955561E-2,-1.2064732E-1,2.180052E-1],"split_indices":[2,2,6,6,3,3,7,0,0,0,0,0,0,0,0],"split_type":[0,0,0,0,0,0,0,0,0,0,0,0,0,0,0],"sum_hessian":[3.4837228E2,2.1645863E2,1.3191364E2,7.087594E1,1.455827E2,1.285045E2,3.4091384E0,6.353074E1,7.3451986E0,9.7311615E1,4.8271088E1,1.1904091E2,9.463588E0,1.6472497E0,1.7618887E0],"tree_param":{"num_deleted":"0","num_feature":"10","num_nodes":"15","size_leaf_vector":"0"}},{"base_weights":[1.6442285E-1,-5.111224E-1,6.1199063E-1,-5.862683E-1,-2.511886E-1,2.6956776E-1,8.442279E-1,-4.0613592E-1,-2.6045306E-2,6.824856E-1,1.1254688E-1,1.0525495E0,6.441029E-1],"categories":[],"categories_nodes":[],"categories_segments":[],"categories_sizes":[],"default_left":[1,1,1,0,1,1,1,0,0,0,0,0,0],"id":9,"left_children":[1,3,5,-1,7,9,11,-1,-1,-1,-1,-1,-1],"loss_changes":[1.21357925E2,2.9796677E0,1.8958221E1,0E0,1.30288E0,6.340037E0,5.2958755E0,0E0,0E0,0E0,0E0,0E0,0E0],"parents":[2147483647,0,0,1,1,2,2,4,4,5,5,6,6],"right_children":[2,4,6,-1,8,10,12,-1,-1,-1,-1,-1,-1],"split_conditions":[1.5575E2,1.5075E2,1.6825E2,-1.8995093E-1,1.4058334E2,4.85E1,5E-1,-1.3158804E-1,-8.438679E-3,2.2112533E-1,3.646519E-2,3.4102604E-1,2.0868933E-1],"split_indices":[2,2,2,0,4,1,9,0,0,0,0,0,0],"split_type":[0,0,0,0,0,0,0,0,0,0,0,0,0],"sum_hessian":[3.993447E2,1.5908484E2,2.4025984E2,1.22434135E2,3.6650707E1,9.796937E1,1.4229047E2,2.1233538E1,1.5417168E1,2.6069067E1,7.190031E1,6.7630516E1,7.465996E1],"tree_param":{"num_deleted":"0","num_feature":"10","num_nodes":"13","size_leaf_vector":"0"}},{"base_weights":[-9.011271E-2,7.941483E-1,-5.690925E-1,8.577583E-1,5.7950413E-1,1.2355436E-1,8.775996E-1,6.6224194E-1,-1.6458206E-1],"categories":[],"categories_nodes":[],"categories_segments":[],"categories_sizes":[],"default_left":[1,1,0,1,1,0,0,0,0],"id":10,"left_children":[1,3,-1,5,7,-1,-1,-1,-1],"loss_changes":[1.4180643E2,1.1096573E0,0E0,1.1836395E0,1.9549646E0,0E0,0E0,0E0,0E0],"parents":[2147483647,0,0,1,1,3,3,4,4],"right_children":[2,4,-1,6,8,-1,-1,-1,-1],"split_conditions":[1.4025E2,1.3725E2,-1.8438597E-1,2.95E0,1.425E2,4.0031612E-2,2.8434226E-1,2.145664E-1,-5.3324588E-2],"split_indices":[2,2,0,7,4,0,0,0,0],"split_type":[0,0,0,0,0,0,0,0,0],"sum_hessian":[3.3274283E2,1.16679245E2,2.1606358E2,8.76947E1,2.8984545E1,2.497695E0,8.519701E1,2.6183134E1,2.8014119E0],"tree_param":{"num_deleted":"0","num_feature":"10","num_nodes":"9","size_leaf_vector":"0"}},{"base_weights":[-4.80615E-1,-1.5344737E-1,-5.690925E-1,-2.884904E-1,2.2667022E-1,6.197691E-1,-3.2666168E-1,2.6540656E-2,9.291756E-1],"categories":[],"categories_nodes":[],"categories_segments":[],"categories_sizes":[],"default_left":[1,1,0,1,1,0,0,0,0],"id":11,"left_children":[1,3,-1,5,7,-1,-1,-1,-1],"loss_changes":[7.9088135E0,3.1540804E0,0E0,1.7569468E0,2.2716255E0,0E0,0E0,0E0,0E0],"parents":[2147483647,0,0,1,1,3,3,4,4],"right_children":[2,4,-1,6,8,-1,-1,-1,-1],"split_conditions":[1.4025E2,1.3725E2,-1.8438597E-1,2.95E0,1.415E2,2.0080519E-1,-1.0583838E-1,8.599172E-3,3.010529E-1],"split_indices":[2,2,0,7,4,0,0,0,0],"split_type":[0,0,0,0,0,0,0,0,0],"sum_hessian":[2.7523413E2,5.9170544E1,2.1606358E2,4.3837574E1,1.5332971E1,1.153531E0,4.2684044E1,1.2741076E1,2.5918946E0],"tree_param":{"num_deleted":"0","num_feature":"10","num_nodes":"9","size_leaf_vector":"0"}},{"base_weights":[3.8278013E-1,-5.557101E-1,4.919368E-1,5.688942E-1,4.585088E-2,6.117525E-1,-8.388314E-4,-1.20310765E-2,8.325176E-1],"categories":[],"categories_nodes":[],"categories_segments":[],"categories_sizes":[],"default_left":[1,0,1,1,1,0,0,0,0],"id":12,"left_children":[1,-1,3,5,7,-1,-1,-1,-1],"loss_changes":[4.9093224E1,0E0,1.4647598E1,8.899757E0,2.9231725E0,0E0,0E0,0E0,0E0],"parents":[2147483647,0,0,2,2,3,3,4,4],"right_children":[2,-1,4,6,8,-1,-1,-1,-1],"split_conditions":[1.4025E2,-1.8005006E-1,1.0625E2,1.8325E2,7.25E0,1.9820781E-1,-2.7178138E-4,-3.8980688E-3,2.6973572E-1],"split_indices":[2,0,3,2,7,0,0,0,0],"split_type":[0,0,0,0,0,0,0,0,0],"sum_hessian":[4.7555862E2,4.9123276E1,4.2643536E2,3.634575E2,6.297788E1,3.3796054E2,2.5496925E1,5.9578846E1,3.399031E0],"tree_param":{"num_deleted":"0","num_feature":"10","num_nodes":"9","size_leaf_vector":"0"}},{"base_weights":[-2.3308939E-1,-1.1093179E-1,-4.384514E-1,-5.58501E-1,4.478926E-2,-4.5912984E-1,1.9945918E-1,-8.970232E-2,3.062617E-1,-4.9471074E-1,-4.1469548E-2,-3.4479618E-1,5.898205E-1],"categories":[],"categories_nodes":[],"categories_segments":[],"categories_sizes":[],"default_left":[1,1,1,0,1,1,1,0,0,0,0,0,0],"id":13,"left_children":[1,3,5,-1,7,9,11,-1,-1,-1,-1,-1,-1],"loss_changes":[7.8238735E0,1.3832279E1,1.6310616E0,0E0,5.2284145E0,1.6638832E0,1.130001E0,0E0,0E0,0E0,0E0,0E0,0E0],"parents":[2147483647,0,0,1,1,2,2,4,4,5,5,6,6],"right_children":[2,4,6,-1,8,10,12,-1,-1,-1,-1,-1,-1],"split_conditions":[1.6125E2,1.4025E2,1.265E2,-1.8095432E-1,9.925E1,1.1725E2,5.05E0,-2.9063553E-2,9.9228784E-2,-1.6028628E-1,-1.3436134E-2,-1.1171396E-1,1.9110185E-1],"split_indices":[2,2,6,0,3,3,7,0,0,0,0,0,0],"split_type":[0,0,0,0,0,0,0,0,0,0,0,0,0],"sum_hessian":[3.1281424E2,1.9710715E2,1.157071E2,5.020958E1,1.4689755E2,1.1234557E2,3.3615246E0,9.7436714E1,4.9460846E1,1.0335609E2,8.989488E0,1.4527607E0,1.908764E0],"tree_param":{"num_deleted":"0","num_feature":"10","num_nodes":"13","size_leaf_vector":"0"}},{"base_weights":[1.3594052E-1,-4.75956E-1,4.5206863E-1,-5.634344E-1,-2.0727779E-1,2.860137E-1,6.388052E-1,-2.6807287E-1,3.7223122E-1,1.2656965E0,2.595407E-1,1.1438148E0,5.9532374E-1],"categories":[],"categories_nodes":[],"categories_segments":[],"categories_sizes":[],"default_left":[1,1,1,0,1,1,1,0,0,0,0,0,0],"id":14,"left_children":[1,3,5,-1,7,9,11,-1,-1,-1,-1,-1,-1],"loss_changes":[7.64378E1,3.0495205E0,7.8896217E0,0E0,1.321278E0,3.2921553E0,1.9918976E0,0E0,0E0,0E0,0E0,0E0,0E0],"parents":[2147483647,0,0,1,1,2,2,4,4,5,5,6,6],"right_children":[2,4,6,-1,8,10,12,-1,-1,-1,-1,-1,-1],"split_conditions":[1.5575E2,1.5075E2,1.7275E2,-1.8255275E-1,9.95E1,2.95E1,1.345E2,-8.685561E-2,1.2060291E-1,4.1008568E-1,8.409119E-2,3.70596E-1,1.9288489E-1],"split_indices":[2,2,2,0,6,1,4,0,0,0,0,0,0],"split_type":[0,0,0,0,0,0,0,0,0,0,0,0,0],"sum_hessian":[3.930423E2,1.3371616E2,2.5932614E2,1.0004547E2,3.3670685E1,1.3860431E2,1.2072182E2,3.0960135E1,2.7105489E0,2.4151783E0,1.3618913E2,7.56408E0,1.1315774E2],"tree_param":{"num_deleted":"0","num_feature":"10","num_nodes":"13","size_leaf_vector":"0"}},{"base_weights":[-9.7770244E-2,6.226117E-1,-5.528513E-1,-1.0203257E-1,6.3266623E-1,3.1660277E-1,6.639692E-1],"categories":[],"categories_nodes":[],"categories_segments":[],"categories_sizes":[],"default_left":[1,1,0,0,1,0,0],"id":15,"left_children":[1,3,-1,-1,5,-1,-1],"loss_changes":[9.58506E1,8.897438E-1,0E0,0E0,8.963623E-1,0E0,0E0],"parents":[2147483647,0,0,1,1,4,4],"right_children":[2,4,-1,-1,6,-1,-1],"split_conditions":[1.4025E2,9.925E1,-1.7912383E-1,-3.3058554E-2,1.375E2,1.02579296E-1,2.1512602E-1],"split_indices":[2,2,0,0,4,0,0],"split_type":[0,0,0,0,0,0,0],"sum_hessian":[2.9032706E2,1.1225774E2,1.7806932E2,1.4110817E0,1.1084666E2,1.0990509E1,9.985615E1],"tree_param":{"num_deleted":"0","num_feature":"10","num_nodes":"7","size_leaf_vector":"0"}},{"base_weights":[-4.4894722E-1,-9.7306885E-2,-5.528513E-1,-2.5985268E-1,1.5915203E-1,5.681493E-1,-3.0768868E-1,-2.6107287E-1,3.729265E-1],"categories":[],"categories_nodes":[],"categories_segments":[],"categories_sizes":[],"default_left":[1,1,0,1,1,0,0,0,0],"id":16,"left_children":[1,3,-1,5,7,-1,-1,-1,-1],"loss_changes":[8.43219E0,2.3002892E0,0E0,1.5035541E0,2.0415177E0,0E0,0E0,0E0,0E0],"parents":[2147483647,0,0,1,1,3,3,4,4],"right_children":[2,4,-1,6,8,-1,-1,-1,-1],"split_conditions":[1.4025E2,1.3575E2,-1.7912383E-1,1.015E2,4.15E1,1.8408038E-1,-9.969113E-2,-8.458761E-2,1.2082819E-1],"split_indices":[2,2,0,2,1,0,0,0,0],"split_type":[0,0,0,0,0,0,0,0,0],"sum_hessian":[2.3125816E2,5.3188843E1,1.7806932E2,3.254703E1,2.0641811E1,1.1835594E0,3.136347E1,6.885486E0,1.3756325E1],"tree_param":{"num_deleted":"0","num_feature":"10","num_nodes":"9","size_leaf_vector":"0"}},{"base_weights":[2.9631397E-1,-5.368937E-1,3.7172964E-1,4.302475E-1,5.8900215E-2,5.907821E-1,3.4934214E-1,3.2861856E-1,-1.3689654E-1],"categories":[],"categories_nodes":[],"categories_segments":[],"categories_sizes":[],"default_left":[1,0,1,1,1,0,0,0,0],"id":17,"left_children":[1,-1,3,5,7,-1,-1,-1,-1],"loss_changes":[3.0346832E1,0E0,8.039227E0,4.611679E0,3.772315E0,0E0,0E0,0E0,0E0],"parents":[2147483647,0,0,2,2,3,3,4,4],"right_children":[2,-1,4,6,8,-1,-1,-1,-1],"split_conditions":[1.4025E2,-1.7395356E-1,1.0575E2,1.5175E2,7.35E1,1.914134E-1,1.1318685E-1,1.0647241E-1,-4.4354476E-2],"split_indices":[2,0,3,2,6,0,0,0,0],"split_type":[0,0,0,0,0,0,0,0,0],"sum_hessian":[4.787698E2,3.922997E1,4.3953983E2,3.699598E2,6.958001E1,1.2185993E2,2.4809988E2,2.8980196E1,4.0599815E1],"tree_param":{"num_deleted":"0","num_feature":"10","num_nodes":"9","size_leaf_vector":"0"}},{"base_weights":[-1.90681E-1,-6.688712E-2,-3.9143398E-1,-5.3906304E-1,7.532462E-2,-4.1959026E-1,2.2463374E-1,1.7943721E-2,6.5966743E-1,-4.5700005E-1,2.4189245E-2,4.940729E-1,-3.6621702E-1],"categories":[],"categories_nodes":[],"categories_segments":[],"categories_sizes":[],"default_left":[1,1,1,0,1,1,1,0,0,0,0,0,0],"id":18,"left_children":[1,3,5,-1,7,9,11,-1,-1,-1,-1,-1,-1],"loss_changes":[7.0411386E0,1.1933431E1,1.9722443E0,0E0,4.581546E0,1.7356758E0,1.0379226E0,0E0,0E0,0E0,0E0,0E0,0E0],"parents":[2147483647,0,0,1,1,2,2,4,4,5,5,6,6],"right_children":[2,4,6,-1,8,10,12,-1,-1,-1,-1,-1,-1],"split_conditions":[1.6025E2,1.4025E2,1.22E2,-1.7465642E-1,5E-1,1.1725E2,1.405E2,5.813766E-3,2.1373224E-1,-1.4806801E-1,7.837315E-3,1.6007963E-1,-1.1865431E-1],"split_indices":[2,2,6,0,8,3,6,0,0,0,0,0,0],"split_type":[0,0,0,0,0,0,0,0,0,0,0,0,0],"sum_hessian":[2.8337643E2,1.7611108E2,1.07265335E2,4.011834E1,1.3599275E2,1.0288221E2,4.3831267E0,1.24771255E2,1.1221496E1,9.485622E1,8.025992E0,3.1228442E0,1.2602823E0],"tree_param":{"num_deleted":"0","num_feature":"10","num_nodes":"13","size_leaf_vector":"0"}},{"base_weights":[1.1740202E-1,-4.8563167E-1,3.3764845E-1,-5.4646707E-1,-2.267757E-1,1.1050327E-1,4.292469E-1,-3.331296E-1,3.373501E-1,3.9159063E-1,-2.871238E-2,9.838518E-1,3.9168957E-1],"categories":[],"categories_nodes":[],"categories_segments":[],"categories_sizes":[],"default_left":[1,1,1,0,1,1,1,0,0,0,0,0,0],"id":19,"left_children":[1,3,5,-1,7,9,11,-1,-1,-1,-1,-1,-1],"loss_changes":[5.0865643E1,1.4907608E0,5.7826176E0,0E0,1.3855911E0,3.215003E0,3.7667274E0,0E0,0E0,0E0,0E0,0E0,0E0],"parents":[2147483647,0,0,1,1,2,2,4,4,5,5,6,6],"right_children":[2,4,6,-1,8,10,12,-1,-1,-1,-1,-1,-1],"split_conditions":[1.5425E2,1.5075E2,1.6375E2,-1.7705533E-1,9.55E1,4.85E1,1.345E2,-1.07934E-1,1.0930143E-1,1.2687536E-1,-9.302812E-3,3.18768E-1,1.2690742E-1],"split_indices":[2,2,2,0,6,1,4,0,0,0,0,0,0],"split_type":[0,0,0,0,0,0,0,0,0,0,0,0,0],"sum_hessian":[3.8074362E2,1.01535355E2,2.7920828E2,8.1314125E1,2.0221231E1,8.087109E1,1.9833717E2,1.735819E1,2.863041E0,2.618622E1,5.468487E1,1.0981317E1,1.8735587E2],"tree_param":{"num_deleted":"0","num_feature":"10","num_nodes":"13","size_leaf_vector":"0"}},{"base_weights":[-1.0774534E-1,5.1008207E-1,-5.405285E-1,5.348707E-1,9.965164E-2,2.4201258E-1,5.6867975E-1,3.968998E-1,-3.5233837E-1],"categories":[],"categories_nodes":[],"categories_segments":[],"categories_sizes":[],"default_left":[1,1,0,1,1,0,0,0,0],"id":20,"left_children":[1,3,-1,5,7,-1,-1,-1,-1],"loss_changes":[6.7148674E1,1.0001068E0,0E0,8.268852E-1,1.0972723E0,0E0,0E0,0E0,0E0],"parents":[2147483647,0,0,1,1,3,3,4,4],"right_children":[2,4,-1,6,8,-1,-1,-1,-1],"split_conditions":[1.4025E2,1.0175E2,-1.7513123E-1,1.375E2,7.05E1,7.841208E-2,1.8425223E-1,1.2859553E-1,-1.1415763E-1],"split_indices":[2,3,0,4,6,0,0,0,0],"split_type":[0,0,0,0,0,0,0,0,0],"sum_hessian":[2.4909961E2,1.02539246E2,1.4656036E2,9.641303E1,6.1262107E0,1.0822815E1,8.559022E1,3.7692637E0,2.356947E0],"tree_param":{"num_deleted":"0","num_feature":"10","num_nodes":"9","size_leaf_vector":"0"}},{"base_weights":[-4.188228E-1,-4.6296775E-2,-5.405285E-1,-1.476524E-1,3.956371E-1,1.891294E-1,-3.2374328E-1,7.253865E-1,-3.935203E-1],"categories":[],"categories_nodes":[],"categories_segments":[],"categories_sizes":[],"default_left":[1,1,0,1,1,0,0,0,0],"id":21,"left_children":[1,3,-1,5,7,-1,-1,-1,-1],"loss_changes":[8.856487E0,2.2681563E0,0E0,2.484254E0,2.7511468E0,0E0,0E0,0E0,0E0],"parents":[2147483647,0,0,1,1,3,3,4,4],"right_children":[2,4,-1,6,8,-1,-1,-1,-1],"split_conditions":[1.4025E2,1.425E2,-1.7513123E-1,1.385E2,6.05E1,6.1277926E-2,-1.0489283E-1,2.3502523E-1,-1.2750058E-1],"split_indices":[2,4,0,4,1,0,0,0,0],"split_type":[0,0,0,0,0,0,0,0,0],"sum_hessian":[1.9489319E2,4.833282E1,1.4656036E2,3.9857555E1,8.475264E0,1.3659362E1,2.6198195E1,6.03454E0,2.4407234E0],"tree_param":{"num_deleted":"0","num_feature":"10","num_nodes":"9","size_leaf_vector":"0"}},{"base_weights":[2.3543078E-1,-5.217509E-1,2.8997216E-1,3.7917894E-1,1.4981069E-1,-1.9734387E-1,4.002828E-1,-5.79053E-1,1.7556256E-1],"categories":[],"categories_nodes":[],"categories_segments":[],"categories_sizes":[],"default_left":[1,0,1,1,1,0,0,0,0],"id":22,"left_children":[1,-1,3,5,7,-1,-1,-1,-1],"loss_changes":[1.9660078E1,0E0,5.460869E0,3.3520164E0,3.3541214E0,0E0,0E0,0E0,0E0],"parents":[2147483647,0,0,2,2,3,3,4,4],"right_children":[2,-1,4,6,8,-1,-1,-1,-1],"split_conditions":[1.4025E2,-1.690473E-1,9.925E1,1.345E2,3.65E0,-6.3939415E-2,1.2969163E-1,-1.8761317E-1,5.688227E-2],"split_indices":[2,0,3,4,5,0,0,0,0],"split_type":[0,0,0,0,0,0,0,0,0],"sum_hessian":[4.713936E2,3.1098349E1,4.4029523E2,2.6801184E2,1.7228339E2,9.1693325E0,2.588425E2,5.1460905E0,1.6713728E2],"tree_param":{"num_deleted":"0","num_feature":"10","num_nodes":"9","size_leaf_vector":"0"}},{"base_weights":[-1.5090534E-1,-4.319603E-2,-3.7408397E-1,-5.23535E-1,6.590431E-2,-3.9978465E-1,1.9665858E-1,9.9386233E-1,3.825942E-2,-4.4586328E-1,-9.5812685E-4,-3.2161716E-1,5.2432394E-1],"categories":[],"categories_nodes":[],"categories_segments":[],"categories_sizes":[],"default_left":[1,1,1,0,1,1,1,0,0,0,0,0,0],"id":23,"left_children":[1,3,5,-1,7,9,11,-1,-1,-1,-1,-1,-1],"loss_changes":[6.2408266E0,9.294111E0,1.3195496E0,0E0,3.6785362E0,1.4933367E0,9.015138E-1,0E0,0E0,0E0,0E0,0E0,0E0],"parents":[2147483647,0,0,1,1,2,2,4,4,5,5,6,6],"right_children":[2,4,6,-1,8,10,12,-1,-1,-1,-1,-1,-1],"split_conditions":[1.6175E2,1.4025E2,1.265E2,-1.6962534E-1,7.175E1,1.1725E2,5.05E0,3.2201138E-1,1.23960525E-2,-1.4445971E-1,-3.104331E-4,-1.0420396E-1,1.6988096E-1],"split_indices":[2,2,6,0,3,3,7,0,0,0,0,0,0],"split_type":[0,0,0,0,0,0,0,0,0,0,0,0,0],"sum_hessian":[2.5929108E2,1.7569272E2,8.3598366E1,3.181617E1,1.4387656E2,8.028275E1,3.3156161E0,3.151135E0,1.4072542E2,7.186218E1,8.420572E0,1.2914146E0,2.0242016E0],"tree_param":{"num_deleted":"0","num_feature":"10","num_nodes":"13","size_leaf_vector":"0"}},{"base_weights":[1.0058417E-1,-4.8844767E-1,2.6027066E-1,-5.3254634E-1,-2.4486084E-1,3.62106E-2,3.2173824E-1,-4.2731848E-1,3.8026184E-1,-3.8383257E-1,1.169247E-1,3.7241644E-1,3.7985127E-2],"categories":[],"categories_nodes":[],"categories_segments":[],"categories_sizes":[],"default_left":[1,1,1,0,1,1,1,0,0,0,0,0,0],"id":24,"left_children":[1,3,5,-1,7,9,11,-1,-1,-1,-1,-1,-1],"loss_changes":[3.477872E1,7.1734047E-1,3.9889355E0,0E0,1.7534369E0,2.2031734E0,3.2618961E0,0E0,0E0,0E0,0E0,0E0,0E0],"parents":[2147483647,0,0,1,1,2,2,4,4,5,5,6,6],"right_children":[2,4,6,-1,8,10,12,-1,-1,-1,-1,-1,-1],"split_conditions":[1.5325E2,1.5075E2,1.6125E2,-1.7254502E-1,9.55E1,4.3500004E0,6.5699997E0,-1.3845119E-1,1.23204835E-1,-1.2436175E-1,3.7883602E-2,1.2066293E-1,1.2307181E-2],"split_indices":[2,2,2,0,6,7,7,0,0,0,0,0,0],"split_type":[0,0,0,0,0,0,0,0,0,0,0,0,0],"sum_hessian":[3.6739716E2,7.791929E1,2.8947787E2,6.497078E1,1.29485035E1,6.2660084E1,2.2681778E2,1.0267966E1,2.6805372E0,9.494488E0,5.3165596E1,1.9218173E2,3.463605E1],"tree_param":{"num_deleted":"0","num_feature":"10","num_nodes":"13","size_leaf_vector":"0"}},{"base_weights":[-1.18804954E-1,4.273492E-1,-5.309363E-1,4.9401662E-1,2.3116763E-1,-1.3965009E-1,5.167985E-1,-4.069171E-1,3.0282834E-1],"categories":[],"categories_nodes":[],"categories_segments":[],"categories_sizes":[],"default_left":[1,1,0,1,1,0,0,0,0],"id":25,"left_children":[1,3,-1,5,7,-1,-1,-1,-1],"loss_changes":[4.819296E1,1.0917034E0,0E0,1.0529213E0,1.2784866E0,0E0,0E0,0E0,0E0],"parents":[2147483647,0,0,1,1,3,3,4,4],"right_children":[2,4,-1,6,8,-1,-1,-1,-1],"split_conditions":[1.4025E2,1.3725E2,-1.7202336E-1,2.95E0,1.375E2,-4.524663E-2,1.6744271E-1,-1.3184114E-1,9.811638E-2],"split_indices":[2,2,0,7,4,0,0,0,0],"split_type":[0,0,0,0,0,0,0,0,0],"sum_hessian":[2.1209987E2,9.120224E1,1.2089764E2,6.6937164E1,2.4265074E1,2.1450076E0,6.479216E1,1.9776046E0,2.2287468E1],"tree_param":{"num_deleted":"0","num_feature":"10","num_nodes":"9","size_leaf_vector":"0"}},{"base_weights":[-3.9021242E-1,-3.9153653E-3,-5.309363E-1,-3.0984095E-1,1.3040946E-1,3.5274678E-1,-4.3147054E-1,-1.05009735E-1,3.4762493E-1],"categories":[],"categories_nodes":[],"categories_segments":[],"categories_sizes":[],"default_left":[1,1,0,1,1,0,0,0,0],"id":26,"left_children":[1,3,-1,5,7,-1,-1,-1,-1],"loss_changes":[9.03894E0,1.9067097E0,0E0,1.292805E0,1.6863267E0,0E0,0E0,0E0,0E0],"parents":[2147483647,0,0,1,1,3,3,4,4],"right_children":[2,4,-1,6,8,-1,-1,-1,-1],"split_conditions":[1.4025E2,4.15E1,-1.7202336E-1,4E0,1.3425E2,1.1428996E-1,-1.3979645E-1,-3.4023155E-2,1.1263048E-1],"split_indices":[2,1,0,7,2,0,0,0,0],"split_type":[0,0,0,0,0,0,0,0,0],"sum_hessian":[1.6531377E2,4.4416134E1,1.2089764E2,1.3153135E1,3.1262999E1,1.7452984E0,1.1407837E1,1.5250737E1,1.601226E1],"tree_param":{"num_deleted":"0","num_feature":"10","num_nodes":"9","size_leaf_vector":"0"}},{"base_weights":[1.8814251E-1,-5.0895435E-1,2.283496E-1,3.7490985E-1,1.698717E-1,4.1046327E-1,-5.8338054E-2,-3.3460226E-2,2.2621965E-1],"categories":[],"categories_nodes":[],"categories_segments":[],"categories_sizes":[],"default_left":[1,0,1,1,1,0,0,0,0],"id":27,"left_children":[1,-1,3,5,7,-1,-1,-1,-1],"loss_changes":[1.3101677E1,0E0,3.6964188E0,1.9385624E0,3.621519E0,0E0,0E0,0E0,0E0],"parents":[2147483647,0,0,2,2,3,3,4,4],"right_children":[2,-1,4,6,8,-1,-1,-1,-1],"split_conditions":[1.4025E2,-1.6490121E-1,1.5225E2,5E-1,4.85E1,1.329901E-1,-1.8901529E-2,-1.08411135E-2,7.329517E-2],"split_indices":[2,0,2,8,1,0,0,0,0],"split_type":[0,0,0,0,0,0,0,0,0],"sum_hessian":[4.622992E2,2.4574608E1,4.377246E2,1.23297935E2,3.1442667E2,1.1399574E2,9.302192E0,6.83156E1,2.4611107E2],"tree_param":{"num_deleted":"0","num_feature":"10","num_nodes":"9","size_leaf_vector":"0"}},{"base_weights":[-1.1680985E-1,-8.400221E-3,-3.2320017E-1,-5.1050335E-1,8.957616E-2,-3.6294547E-1,1.2396143E-1,-1.806481E-2,3.3851108E-1,-4.1412085E-1,-9.705195E-2,6.572181E-1,-6.122042E-2],"categories":[],"categories_nodes":[],"categories_segments":[],"categories_sizes":[],"default_left":[1,1,1,0,1,1,1,0,0,0,0,0,0],"id":28,"left_children":[1,3,5,-1,7,9,11,-1,-1,-1,-1,-1,-1],"loss_changes":[5.397197E0,7.880158E0,1.5216284E0,0E0,3.5995057E0,1.001544E0,7.8357106E-1,0E0,0E0,0E0,0E0,0E0,0E0],"parents":[2147483647,0,0,1,1,2,2,4,4,5,5,6,6],"right_children":[2,4,6,-1,8,10,12,-1,-1,-1,-1,-1,-1],"split_conditions":[1.6025E2,1.4025E2,1.135E2,-1.6540308E-1,8.75E1,1.1125E2,3.95E0,-5.8529982E-3,1.0967759E-1,-1.3417515E-1,-3.1444833E-2,2.1293867E-1,-1.9835416E-2],"split_indices":[2,2,6,0,6,3,5,0,0,0,0,0,0],"split_type":[0,0,0,0,0,0,0,0,0,0,0,0,0],"sum_hessian":[2.4034009E2,1.5825497E2,8.208511E1,2.5151207E1,1.3310376E2,7.5557625E1,6.527494E0,9.357067E1,3.9533096E1,6.2895016E1,1.2662607E1,1.0254699E0,5.502024E0],"tree_param":{"num_deleted":"0","num_feature":"10","num_nodes":"13","size_leaf_vector":"0"}},{"base_weights":[8.7775566E-2,-4.690325E-1,2.1208274E-1,-5.2215683E-1,-2.0948027E-1,1.7491269E-1,5.3540283E-1,-3.9919937E-1,3.3969292E-1,-1.4587003E-1,2.0888971E-1,6.1005485E-1,2.2611888E-1],"categories":[],"categories_nodes":[],"categories_segments":[],"categories_sizes":[],"default_left":[1,1,1,0,1,1,1,0,0,0,0,0,0],"id":29,"left_children":[1,3,5,-1,7,9,11,-1,-1,-1,-1,-1,-1],"loss_changes":[2.473342E1,7.905359E-1,3.4112024E0,0E0,1.4649183E0,2.897542E0,5.4514503E-1,0E0,0E0,0E0,0E0,0E0,0E0],"parents":[2147483647,0,0,1,1,2,2,4,4,5,5,6,6],"right_children":[2,4,6,-1,8,10,12,-1,-1,-1,-1,-1,-1],"split_conditions":[1.5325E2,1.5075E2,1.9175E2,-1.6917881E-1,9.55E1,8.225E1,6.55E0,-1.2934059E-1,1.10060506E-1,-4.726189E-2,6.768026E-2,1.9765778E-1,7.326252E-2],"split_indices":[2,2,2,0,6,3,7,0,0,0,0,0,0],"split_type":[0,0,0,0,0,0,0,0,0,0,0,0,0],"sum_hessian":[3.549035E2,6.426566E1,2.9063785E2,5.250695E1,1.1758715E1,2.6205234E2,2.8585499E1,8.942501E0,2.8162138E0,2.4782589E1,2.3726976E2,2.2243982E1,6.341517E0],"tree_param":{"num_deleted":"0","num_feature":"10","num_nodes":"13","size_leaf_vector":"0"}},{"base_weights":[-1.2984683E-1,3.5732028E-1,-5.232928E-1,4.1027704E-1,9.301187E-2,2.2231293E-1,4.9484766E-1,2.352571E-1,-6.714367E-1],"categories":[],"categories_nodes":[],"categories_segments":[],"categories_sizes":[],"default_left":[1,1,0,1,1,0,0,0,0],"id":30,"left_children":[1,3,-1,5,7,-1,-1,-1,-1],"loss_changes":[3.5017372E1,1.1065474E0,0E0,9.683714E-1,1.7829661E0,0E0,0E0,0E0,0E0],"parents":[2147483647,0,0,1,1,3,3,4,4],"right_children":[2,4,-1,6,8,-1,-1,-1,-1],"split_conditions":[1.4025E2,1.425E2,-1.6954686E-1,1.385E2,9.75E1,7.202939E-2,1.6033064E-1,7.62233E-2,-2.175455E-1],"split_indices":[2,4,0,4,3,0,0,0,0],"split_type":[0,0,0,0,0,0,0,0,0],"sum_hessian":[1.807169E2,8.0782875E1,9.993403E1,6.6838806E1,1.3944072E1,2.1866875E1,4.497193E1,1.2340127E1,1.6039442E0],"tree_param":{"num_deleted":"0","num_feature":"10","num_nodes":"9","size_leaf_vector":"0"}},{"base_weights":[-3.6096853E-1,3.346213E-2,-5.232928E-1,-2.5173968E-1,1.7323269E-1,3.5214117E-1,-3.6442134E-1,3.789913E-2,6.340828E-1],"categories":[],"categories_nodes":[],"categories_segments":[],"categories_sizes":[],"default_left":[1,1,0,1,1,0,0,0,0],"id":31,"left_children":[1,3,-1,5,7,-1,-1,-1,-1],"loss_changes":[9.133972E0,1.73593E0,0E0,1.1061761E0,1.7898483E0,0E0,0E0,0E0,0E0],"parents":[2147483647,0,0,1,1,3,3,4,4],"right_children":[2,4,-1,6,8,-1,-1,-1,-1],"split_conditions":[1.4025E2,4.25E0,-1.6954686E-1,3.55E0,1.425E2,1.1409374E-1,-1.1807252E-1,1.2279318E-2,2.0544283E-1],"split_indices":[2,5,0,7,4,0,0,0,0],"split_type":[0,0,0,0,0,0,0,0,0],"sum_hessian":[1.4138763E2,4.145361E1,9.993403E1,1.3370339E1,2.808327E1,1.7683485E0,1.1601991E1,2.2544943E1,5.5383263E0],"tree_param":{"num_deleted":"0","num_feature":"10","num_nodes":"9","size_leaf_vector":"0"}},{"base_weights":[1.5151247E-1,-4.9754906E-1,1.8186842E-1,2.1538414E-1,-1.1034177E-2,2.8173363E-1,9.2227995E-2,-5.0173126E-2,7.8346443E-1],"categories":[],"categories_nodes":[],"categories_segments":[],"categories_sizes":[],"default_left":[1,0,1,1,1,0,0,0,0],"id":32,"left_children":[1,-1,3,5,7,-1,-1,-1,-1],"loss_changes":[8.998876E0,0E0,2.7996874E0,2.9865494E0,2.0604503E0,0E0,0E0,0E0,0E0],"parents":[2147483647,0,0,2,2,3,3,4,4],"right_children":[2,-1,4,6,8,-1,-1,-1,-1],"split_conditions":[1.4025E2,-1.6120589E-1,1.0625E2,6.45E1,7.6499996E0,9.12817E-2,2.988187E-2,-1.6256092E-2,2.5384247E-1],"split_indices":[2,0,3,1,7,0,0,0,0],"split_type":[0,0,0,0,0,0,0,0,0],"sum_hessian":[4.5113632E2,1.946885E1,4.3166748E2,3.6767032E2,6.399716E1,2.3810522E2,1.2956508E2,6.1885384E1,2.1117766E0],"tree_param":{"num_deleted":"0","num_feature":"10","num_nodes":"9","size_leaf_vector":"0"}},{"base_weights":[-8.534586E-2,1.4001334E-2,-2.8959388E-1,-4.9893907E-1,9.4547614E-2,-3.24292E-1,2.1958779E-1,-1.8514622E-2,2.975187E-1,-3.661551E-1,1.836878E-1,4.5391753E-1,-3.4441563E-1],"categories":[],"categories_nodes":[],"categories_segments":[],"categories_sizes":[],"default_left":[1,1,1,0,1,1,1,0,0,0,0,0,0],"id":33,"left_children":[1,3,5,-1,7,9,11,-1,-1,-1,-1,-1,-1],"loss_changes":[4.5906954E0,6.3694324E0,1.3788605E0,0E0,3.059863E0,1.5493784E0,8.5919726E-1,0E0,0E0,0E0,0E0,0E0,0E0],"parents":[2147483647,0,0,1,1,2,2,4,4,5,5,6,6],"right_children":[2,4,6,-1,8,10,12,-1,-1,-1,-1,-1,-1],"split_conditions":[1.6025E2,1.4025E2,1.22E2,-1.6165626E-1,9.925E1,1.1925E2,1.405E2,-5.9987376E-3,9.639606E-2,-1.1863425E-1,5.951485E-2,1.4706928E-1,-1.1159067E-1],"split_indices":[2,2,6,0,3,3,6,0,0,0,0,0,0],"split_type":[0,0,0,0,0,0,0,0,0,0,0,0,0],"sum_hessian":[2.2503792E2,1.5202412E2,7.3013794E1,1.9927296E1,1.3209682E2,6.869565E1,4.3181467E0,8.5422295E1,4.6674526E1,6.3723343E1,4.9723067E0,3.1885629E0,1.1295838E0],"tree_param":{"num_deleted":"0","num_feature":"10","num_nodes":"13","size_leaf_vector":"0"}},{"base_weights":[7.458496E-2,-4.6325576E-1,1.6811255E-1,-5.129338E-1,-1.8883544E-1,1.18197545E-1,3.5560355E-1,-4.7461665E-1,3.0816674E-1,5.9599034E-2,3.4228694E-1,5.8232206E-1,2.2874248E-1],"categories":[],"categories_nodes":[],"categories_segments":[],"categories_sizes":[],"default_left":[1,1,1,0,1,1,1,0,0,0,0,0,0],"id":34,"left_children":[1,3,5,-1,7,9,11,-1,-1,-1,-1,-1,-1],"loss_changes":[1.7464846E1,6.0478973E-1,2.7204142E0,0E0,1.4915705E0,3.0603778E0,1.6374731E0,0E0,0E0,0E0,0E0,0E0,0E0],"parents":[2147483647,0,0,1,1,2,2,4,4,5,5,6,6],"right_children":[2,4,6,-1,8,10,12,-1,-1,-1,-1,-1,-1],"split_conditions":[1.5275E2,1.5075E2,1.8325E2,-1.6619055E-1,9.875E1,9.45E1,1.395E2,-1.537758E-1,9.984603E-2,1.9310087E-2,1.1090097E-1,1.8867235E-1,7.4112564E-2],"split_indices":[2,2,2,0,3,6,4,0,0,0,0,0,0],"split_type":[0,0,0,0,0,0,0,0,0,0,0,0,0],"sum_hessian":[3.4464508E2,5.046832E1,2.941768E2,4.1996567E1,8.47175E0,2.3361324E2,6.0563538E1,5.4074526E0,3.0642977E0,1.8619098E2,4.7422256E1,2.0441492E1,4.0122047E1],"tree_param":{"num_deleted":"0","num_feature":"10","num_nodes":"13","size_leaf_vector":"0"}},{"base_weights":[-1.4035654E-1,2.9730374E-1,-5.1702905E-1,3.7342486E-1,9.749013E-2,1.8280694E-1,4.8122028E-1,-4.204565E-1,1.7174162E-1],"categories":[],"categories_nodes":[],"categories_segments":[],"categories_sizes":[],"default_left":[1,1,0,1,1,0,0,0,0],"id":35,"left_children":[1,3,-1,5,7,-1,-1,-1,-1],"loss_changes":[2.577676E1,1.0667601E0,0E0,9.839473E-1,8.937391E-1,0E0,0E0,0E0,0E0],"parents":[2147483647,0,0,1,1,3,3,4,4],"right_children":[2,4,-1,6,8,-1,-1,-1,-1],"split_conditions":[1.4025E2,1.3725E2,-1.6751741E-1,6.95E1,1.375E2,5.922945E-2,1.5591536E-1,-1.362279E-1,5.5644285E-2],"split_indices":[2,2,0,6,4,0,0,0,0],"split_type":[0,0,0,0,0,0,0,0,0],"sum_hessian":[1.5442815E2,7.152875E1,8.28994E1,5.1167194E1,2.0361555E1,1.9456873E1,3.1710321E1,1.9683797E0,1.8393175E1],"tree_param":{"num_deleted":"0","num_feature":"10","num_nodes":"9","size_leaf_vector":"0"}},{"base_weights":[-3.3211172E-1,6.379804E-2,-5.1702905E-1,-2.3959422E-1,1.776458E-1,-3.8563454E-1,3.789826E-1,4.348763E-1,6.7964247E-3],"categories":[],"categories_nodes":[],"categories_segments":[],"categories_sizes":[],"default_left":[1,1,0,1,1,0,0,0,0],"id":36,"left_children":[1,3,-1,5,7,-1,-1,-1,-1],"loss_changes":[9.032402E0,1.4250717E0,0E0,1.1712171E0,1.3013477E0,0E0,0E0,0E0,0E0],"parents":[2147483647,0,0,1,1,3,3,4,4],"right_children":[2,4,-1,6,8,-1,-1,-1,-1],"split_conditions":[1.4025E2,4.15E1,-1.6751741E-1,1.0125E2,6.95E1,-1.2494559E-1,1.2279037E-1,1.4089993E-1,2.2020417E-3],"split_indices":[2,1,0,3,6,0,0,0,0],"split_type":[0,0,0,0,0,0,0,0,0],"sum_hessian":[1.21925095E2,3.9025696E1,8.28994E1,1.0347141E1,2.8678553E1,8.67551E0,1.6716306E0,1.0829021E1,1.7849531E1],"tree_param":{"num_deleted":"0","num_feature":"10","num_nodes":"9","size_leaf_vector":"0"}},{"base_weights":[1.21947885E-1,-4.8679718E-1,1.4528391E-1,-2.9923254E-1,1.5866582E-1,2.0647061E-1,-5.2266973E-1,2.3191316E-1,6.999879E-2],"categories":[],"categories_nodes":[],"categories_segments":[],"categories_sizes":[],"default_left":[1,0,1,1,1,0,0,0,0],"id":37,"left_children":[1,-1,3,5,7,-1,-1,-1,-1],"loss_changes":[6.329478E0,0E0,2.5760899E0,1.550776E0,2.6680956E0,0E0,0E0,0E0,0E0],"parents":[2147483647,0,0,2,2,3,3,4,4],"right_children":[2,-1,4,6,8,-1,-1,-1,-1],"split_conditions":[1.4025E2,-1.577223E-1,1.345E2,1.62E2,5E-1,6.6896476E-2,-1.6934499E-1,7.5139865E-2,2.2679608E-2],"split_indices":[2,0,4,2,0,0,0,0,0],"split_type":[0,0,0,0,0,0,0,0,0],"sum_hessian":[4.3958084E2,1.5495807E1,4.2408502E2,1.1769474E1,4.1231555E2,3.6298976E0,8.139576E0,2.2490622E2,1.8740933E2],"tree_param":{"num_deleted":"0","num_feature":"10","num_nodes":"9","size_leaf_vector":"0"}},{"base_weights":[-6.0257167E-2,4.926708E-2,-2.2790341E-1,-4.8808506E-1,1.2810236E-1,-2.255129E-2,-3.1579027E-1,6.658573E-2,6.4991415E-1,-3.1026644E-1,5.8863854E-1,-3.5105652E-1,3.5415503E-1],"categories":[],"categories_nodes":[],"categories_segments":[],"categories_sizes":[],"default_left":[1,1,1,0,1,1,1,0,0,0,0,0,0],"id":38,"left_children":[1,3,5,-1,7,9,11,-1,-1,-1,-1,-1,-1],"loss_changes":[3.9363983E0,5.5748367E0,1.5206332E0,0E0,3.624713E0,4.8334107E0,1.523087E0,0E0,0E0,0E0,0E0,0E0,0E0],"parents":[2147483647,0,0,1,1,2,2,4,4,5,5,6,6],"right_children":[2,4,6,-1,8,10,12,-1,-1,-1,-1,-1,-1],"split_conditions":[1.5775E2,1.4025E2,4.8083334E0,-1.5813956E-1,5E-1,1.0575E2,1.265E2,2.1573776E-2,2.1057218E-1,-1.00526325E-1,1.9071889E-1,-1.13742314E-1,1.1474623E-1],"split_indices":[2,2,7,0,8,3,6,0,0,0,0,0,0],"split_type":[0,0,0,0,0,0,0,0,0,0,0,0,0],"sum_hessian":[2.1277374E2,1.2912305E2,8.3650696E1,1.5855892E1,1.1326715E2,2.544762E1,5.8203075E1,1.0233092E2,1.0936234E1,1.7637293E1,7.8103275E0,5.5744644E1,2.4584324E0],"tree_param":{"num_deleted":"0","num_feature":"10","num_nodes":"13","size_leaf_vector":"0"}},{"base_weights":[6.499766E-2,-4.6323663E-1,1.3743225E-1,-5.053434E-1,-1.6947292E-1,5.9337705E-1,1.1744318E-1,-4.0837872E-1,1.3323995E-1,1.2538333E-2,6.681088E-1,2.1868056E-1,-6.591438E-3],"categories":[],"categories_nodes":[],"categories_segments":[],"categories_sizes":[],"default_left":[1,1,1,0,1,1,1,0,0,0,0,0,0],"id":39,"left_children":[1,3,5,-1,7,9,11,-1,-1,-1,-1,-1,-1],"loss_changes":[1.2893064E1,4.173317E-1,2.6247258E0,0E0,5.318888E-1,5.1988363E-1,3.5734847E0,0E0,0E0,0E0,0E0,0E0,0E0],"parents":[2147483647,0,0,1,1,2,2,4,4,5,5,6,6],"right_children":[2,4,6,-1,8,10,12,-1,-1,-1,-1,-1,-1],"split_conditions":[1.5225E2,1.5075E2,1.345E2,-1.6373126E-1,9.875E1,1.655E2,5E-1,-1.3231471E-1,4.3169744E-2,4.06242E-3,2.1646726E-1,7.08525E-2,-2.1356258E-3],"split_indices":[2,2,4,0,3,2,9,0,0,0,0,0,0],"split_type":[0,0,0,0,0,0,0,0,0,0,0,0,0],"sum_hessian":[3.3430017E2,3.96626E1,2.9463757E2,3.4060318E1,5.602286E0,1.1169915E1,2.8346765E2,2.9360478E0,2.6662383E0,1.4064355E0,9.763479E0,1.5565697E2,1.27810684E2],"tree_param":{"num_deleted":"0","num_feature":"10","num_nodes":"13","size_leaf_vector":"0"}},{"base_weights":[-1.4822067E-1,2.4515484E-1,-5.1169634E-1,2.677656E-1,-4.299336E-1,3.368965E-1,4.4035975E-2],"categories":[],"categories_nodes":[],"categories_segments":[],"categories_sizes":[],"default_left":[1,1,0,1,0,0,0],"id":40,"left_children":[1,3,-1,5,-1,-1,-1],"loss_changes":[1.931697E1,1.1093795E0,0E0,9.694853E-1,0E0,0E0,0E0],"parents":[2147483647,0,0,1,1,3,3],"right_children":[2,4,-1,6,-1,-1,-1],"split_conditions":[1.4025E2,1.37E2,-1.6578962E-1,4.55E0,-1.3929848E-1,1.0915447E-1,1.4267656E-2],"split_indices":[2,6,0,5,0,0,0],"split_type":[0,0,0,0,0,0,0],"sum_hessian":[1.3322299E2,6.41363E1,6.9086685E1,6.26416E1,1.494696E0,4.7468384E1,1.517322E1],"tree_param":{"num_deleted":"0","num_feature":"10","num_nodes":"7","size_leaf_vector":"0"}},{"base_weights":[-3.033534E-1,8.4383115E-2,-5.1169634E-1,-1.9048256E-1,2.0359148E-1,3.7747124E-1,-3.1910974E-1,-5.406332E-2,4.1114214E-1],"categories":[],"categories_nodes":[],"categories_segments":[],"categories_sizes":[],"default_left":[1,1,0,1,1,0,0,0,0],"id":41,"left_children":[1,3,-1,5,7,-1,-1,-1,-1],"loss_changes":[8.729589E0,1.2983868E0,0E0,1.007734E0,1.4819559E0,0E0,0E0,0E0,0E0],"parents":[2147483647,0,0,1,1,3,3,4,4],"right_children":[2,4,-1,6,8,-1,-1,-1,-1],"split_conditions":[1.4025E2,4.25E0,-1.6578962E-1,3.55E0,4.95E1,1.22300684E-1,-1.0339156E-1,-1.7516516E-2,1.3321005E-1],"split_indices":[2,5,0,7,1,0,0,0,0],"split_type":[0,0,0,0,0,0,0,0,0],"sum_hessian":[1.06528824E2,3.744214E1,6.9086685E1,1.11454735E1,2.6296663E1,1.7008314E0,9.444642E0,1.2062148E1,1.4234516E1],"tree_param":{"num_deleted":"0","num_feature":"10","num_nodes":"9","size_leaf_vector":"0"}},{"base_weights":[9.77157E-2,-4.76368E-1,1.1588044E-1,1.2430419E-1,-5.2699274E-1,1.3219383E-1,-5.1348066E-1,-1.1518306E-1,-7.0060784E-1],"categories":[],"categories_nodes":[],"categories_segments":[],"categories_sizes":[],"default_left":[1,0,1,1,1,0,0,0,0],"id":42,"left_children":[1,-1,3,5,7,-1,-1,-1,-1],"loss_changes":[4.5652137E0,0E0,2.3401237E0,2.1581454E0,3.213551E-1,0E0,0E0,0E0,0E0],"parents":[2147483647,0,0,2,2,3,3,4,4],"right_children":[2,-1,4,6,8,-1,-1,-1,-1],"split_conditions":[1.4025E2,-1.5434323E-1,1.365E2,2.0975E2,7.525E1,4.2830803E-2,-1.6636774E-1,-3.7319314E-2,-2.2699694E-1],"split_indices":[2,0,6,2,3,0,0,0,0],"split_type":[0,0,0,0,0,0,0,0,0],"sum_hessian":[4.314874E2,1.2460396E1,4.19027E2,4.144036E2,4.6234074E0,4.1012296E2,4.2806473E0,1.8644439E0,2.7589636E0],"tree_param":{"num_deleted":"0","num_feature":"10","num_nodes":"9","size_leaf_vector":"0"}},{"base_weights":[-4.0639684E-2,3.3948902E-2,-2.5365394E-1,-4.7758594E-1,8.399774E-2,-3.087794E-1,7.648879E-2,4.1020703E-1,1.5105663E-2,-3.499878E-1,1.8071501E-1,8.920606E-1,-4.7319776E-1],"categories":[],"categories_nodes":[],"categories_segments":[],"categories_sizes":[],"default_left":[1,1,1,0,1,1,1,0,0,0,0,0,0],"id":43,"left_children":[1,3,5,-1,7,9,11,-1,-1,-1,-1,-1,-1],"loss_changes":[3.2609909E0,3.9442437E0,9.9193597E-1,0E0,3.1345434E0,9.869313E-1,4.1943784E0,0E0,0E0,0E0,0E0,0E0,0E0],"parents":[2147483647,0,0,1,1,2,2,4,4,5,5,6,6],"right_children":[2,4,6,-1,8,10,12,-1,-1,-1,-1,-1,-1],"split_conditions":[1.6175E2,1.4025E2,1.1725E2,-1.5473785E-1,8.475E1,1.265E2,4.7E0,1.3290708E-1,4.8942347E-3,-1.1339605E-1,5.855166E-2,2.8902763E-1,-1.5331608E-1],"split_indices":[2,2,3,0,3,6,7,0,0,0,0,0,0],"split_type":[0,0,0,0,0,0,0,0,0,0,0,0,0],"sum_hessian":[2.0370113E2,1.5149472E2,5.2206417E1,1.2740037E1,1.3875467E2,4.4792E1,7.4144163E0,2.333017E1,1.1542451E2,4.1576828E1,3.2151725E0,2.73445E0,4.6799664E0],"tree_param":{"num_deleted":"0","num_feature":"10","num_nodes":"13","size_leaf_vector":"0"}},{"base_weights":[5.6610826E-2,-4.9854296E-1,1.09831795E-1,-1.604113E-1,1.3680297E-1,-2.593631E-1,6.2731165E-1,6.9534767E-1,1.1975333E-1],"categories":[],"categories_nodes":[],"categories_segments":[],"categories_sizes":[],"default_left":[1,0,1,1,1,0,0,0,0],"id":44,"left_children":[1,-1,3,5,7,-1,-1,-1,-1],"loss_changes":[9.7477045E0,0E0,2.2099266E0,2.3219056E0,2.5211153E0,0E0,0E0,0E0,0E0],"parents":[2147483647,0,0,2,2,3,3,4,4],"right_children":[2,-1,4,6,8,-1,-1,-1,-1],"split_conditions":[1.5075E2,-1.6152792E-1,8.225E1,1.2E2,8.425E1,-8.403365E-2,2.0324898E-1,2.2529264E-1,3.880008E-2],"split_indices":[2,0,3,6,3,0,0,0,0],"split_type":[0,0,0,0,0,0,0,0,0],"sum_hessian":[3.2706497E2,2.787984E1,2.9918512E2,2.670106E1,2.7248407E2,2.4317142E1,2.3839166E0,6.892803E0,2.6559125E2],"tree_param":{"num_deleted":"0","num_feature":"10","num_nodes":"9","size_leaf_vector":"0"}},{"base_weights":[-1.5361905E-1,1.977456E-1,-5.07028E-1,2.835684E-1,-2.5906102E-3,8.58312E-2,4.0839046E-1,1.8674913E-1,-2.531185E-1],"categories":[],"categories_nodes":[],"categories_segments":[],"categories_sizes":[],"default_left":[1,1,0,1,1,0,0,0,0],"id":45,"left_children":[1,3,-1,5,7,-1,-1,-1,-1],"loss_changes":[1.4680486E1,1.0254259E0,0E0,9.949939E-1,9.4213474E-1,0E0,0E0,0E0,0E0],"parents":[2147483647,0,0,1,1,3,3,4,4],"right_children":[2,4,-1,6,8,-1,-1,-1,-1],"split_conditions":[1.4025E2,1.3725E2,-1.6427706E-1,6.95E1,7.75E1,2.7809309E-2,1.3231851E-1,6.050672E-2,-8.201039E-2],"split_indices":[2,2,0,6,6,0,0,0,0],"split_type":[0,0,0,0,0,0,0,0,0],"sum_hessian":[1.1641634E2,5.859788E1,5.7818462E1,4.0732754E1,1.7865128E1,1.6415585E1,2.4317171E1,1.0320129E1,7.5449967E0],"tree_param":{"num_deleted":"0","num_feature":"10","num_nodes":"9","size_leaf_vector":"0"}},{"base_weights":[-2.7377734E-1,9.942839E-2,-5.07028E-1,-2.832553E-2,3.2526508E-1,2.5697112E-1,-2.4318656E-1,4.772825E-2,6.2690467E-1],"categories":[],"categories_nodes":[],"categories_segments":[],"categories_sizes":[],"default_left":[1,1,0,1,1,0,0,0,0],"id":46,"left_children":[1,3,-1,5,7,-1,-1,-1,-1],"loss_changes":[8.347466E0,1.0909915E0,0E0,1.5868517E0,1.110887E0,0E0,0E0,0E0,0E0],"parents":[2147483647,0,0,1,1,3,3,4,4],"right_children":[2,4,-1,6,8,-1,-1,-1,-1],"split_conditions":[1.4025E2,1.3725E2,-1.6427706E-1,6.95E1,7.75E1,8.3258644E-2,-7.8792445E-2,1.5463954E-2,2.0311712E-1],"split_indices":[2,2,0,6,6,0,0,0,0],"split_type":[0,0,0,0,0,0,0,0,0],"sum_hessian":[9.4313126E1,3.6494663E1,5.7818462E1,2.386756E1,1.2627103E1,1.016899E1,1.3698569E1,7.179508E0,5.447594E0],"tree_param":{"num_deleted":"0","num_feature":"10","num_nodes":"9","size_leaf_vector":"0"}},{"base_weights":[7.825404E-2,-4.658578E-1,9.26274E-2,8.62089E-2,7.935796E-1,1.440168E-1,3.2164678E-3],"categories":[],"categories_nodes":[],"categories_segments":[],"categories_sizes":[],"default_left":[1,0,1,1,0,0,0],"id":47,"left_children":[1,-1,3,5,-1,-1,-1],"loss_changes":[3.3768842E0,0E0,1.8037927E0,1.9832516E0,0E0,0E0,0E0],"parents":[2147483647,0,0,2,2,3,3],"right_children":[2,-1,4,6,-1,-1,-1],"split_conditions":[1.4025E2,-1.5093793E-1,8.5E0,9.925E1,2.5711977E-1,4.6661444E-2,1.0421355E-3],"split_indices":[2,0,7,3,0,0,0],"split_type":[0,0,0,0,0,0,0],"sum_hessian":[4.2526965E2,1.0136471E1,4.1513318E2,4.1247916E2,2.6540086E0,2.4269565E2,1.6978352E2],"tree_param":{"num_deleted":"0","num_feature":"10","num_nodes":"7","size_leaf_vector":"0"}},{"base_weights":[-2.5485568E-2,3.603989E-2,-2.417222E-1,-4.6721864E-1,7.532268E-2,-3.0954295E-1,1.0210269E-1,8.0934465E-1,4.7170155E-2,-3.605324E-1,1.8852028E-1,6.962835E-1,-4.4191992E-1],"categories":[],"categories_nodes":[],"categories_segments":[],"categories_sizes":[],"default_left":[1,1,1,0,1,1,1,0,0,0,0,0,0],"id":48,"left_children":[1,3,5,-1,7,9,11,-1,-1,-1,-1,-1,-1],"loss_changes":[2.6455848E0,3.1027834E0,1.0583642E0,0E0,2.9539456E0,1.0082681E0,2.895775E0,0E0,0E0,0E0,0E0,0E0,0E0],"parents":[2147483647,0,0,1,1,2,2,4,4,5,5,6,6],"right_children":[2,4,6,-1,8,10,12,-1,-1,-1,-1,-1,-1],"split_conditions":[1.6325E2,1.4025E2,1.1725E2,-1.5137884E-1,7.175E1,1.265E2,4.7E0,2.6222765E-1,1.528313E-2,-1.168125E-1,6.108057E-2,2.2559586E-1,-1.4318205E-1],"split_indices":[2,2,3,0,3,6,7,0,0,0,0,0,0],"split_type":[0,0,0,0,0,0,0,0,0,0,0,0,0],"sum_hessian":[1.9720068E2,1.5416866E2,4.3032024E1,1.0373844E1,1.4379482E2,3.6025555E1,7.0064683E0,4.286413E0,1.3950839E2,3.293042E1,3.0951364E0,3.215081E0,3.7913873E0],"tree_param":{"num_deleted":"0","num_feature":"10","num_nodes":"13","size_leaf_vector":"0"}},{"base_weights":[4.9059875E-2,-4.92103E-1,9.225847E-2,6.70071E-2,3.5863054E-1,1.4594978E-1,-3.5088874E-2,4.632545E-1,1.0367452E-1],"categories":[],"categories_nodes":[],"categories_segments":[],"categories_sizes":[],"default_left":[1,0,1,1,1,0,0,0,0],"id":49,"left_children":[1,-1,3,5,7,-1,-1,-1,-1],"loss_changes":[7.586586E0,0E0,1.9910128E0,2.2204854E0,6.3778543E-1,0E0,0E0,0E0,0E0],"parents":[2147483647,0,0,2,2,3,3,4,4],"right_children":[2,-1,4,6,8,-1,-1,-1,-1],"split_conditions":[1.5075E2,-1.5944138E-1,1.9175E2,5E-1,7.35E1,4.728773E-2,-1.1368795E-2,1.5009446E-1,3.3590544E-2],"split_indices":[2,0,2,9,1,0,0,0,0],"split_type":[0,0,0,0,0,0,0,0,0],"sum_hessian":[3.215834E2,2.3004675E1,2.985787E2,2.738683E2,2.4710432E1,1.5420462E2,1.19663666E2,1.6941362E1,7.7690687E0],"tree_param":{"num_deleted":"0","num_feature":"10","num_nodes":"9","size_leaf_vector":"0"}},{"base_weights":[-1.5529433E-1,1.6082309E-1,-5.0277513E-1,2.2712749E-1,-1.276748E-1,6.8132603E-3,3.5129824E-1,-3.63166E-1,4.2095733E-1],"categories":[],"categories_nodes":[],"categories_segments":[],"categories_sizes":[],"default_left":[1,1,0,1,1,0,0,0,0],"id":50,"left_children":[1,3,-1,5,7,-1,-1,-1,-1],"loss_changes":[1.1434444E1,1.0787871E0,0E0,1.228224E0,1.5606228E0,0E0,0E0,0E0,0E0],"parents":[2147483647,0,0,1,1,3,3,4,4],"right_children":[2,4,-1,6,8,-1,-1,-1,-1],"split_conditions":[1.4025E2,1.425E2,-1.6289914E-1,1.385E2,6.05E1,2.2074964E-3,1.1382063E-1,-1.1766578E-1,1.3639018E-1],"split_indices":[2,4,0,4,1,0,0,0,0],"split_type":[0,0,0,0,0,0,0,0,0],"sum_hessian":[1.0236031E2,5.3880344E1,4.847997E1,4.3984318E1,9.8960285E0,1.6234524E1,2.7749794E1,7.160538E0,2.7354898E0],"tree_param":{"num_deleted":"0","num_feature":"10","num_nodes":"9","size_leaf_vector":"0"}},{"base_weights":[-2.474576E-1,1.0365778E-1,-5.0277513E-1,1.1566102E-2,4.1383758E-1,2.6859933E-1,-1.7699356E-1,6.4897954E-1,-3.4030712E-1],"categories":[],"categories_nodes":[],"categories_segments":[],"categories_sizes":[],"default_left":[1,1,0,1,1,0,0,0,0],"id":51,"left_children":[1,3,-1,5,7,-1,-1,-1,-1],"loss_changes":[7.686782E0,1.0431113E0,0E0,1.4683365E0,1.7050152E0,0E0,0E0,0E0,0E0],"parents":[2147483647,0,0,1,1,3,3,4,4],"right_children":[2,4,-1,6,8,-1,-1,-1,-1],"split_conditions":[1.4025E2,1.425E2,-1.6289914E-1,1.385E2,6.05E1,8.702619E-2,-5.7345916E-2,2.1026938E-1,-1.102595E-1],"split_indices":[2,4,0,4,1,0,0,0,0],"split_type":[0,0,0,0,0,0,0,0,0],"sum_hessian":[8.4164665E1,3.56847E1,4.847997E1,2.8315254E1,7.3694468E0,1.1802422E1,1.6512833E1,5.724119E0,1.6453277E0],"tree_param":{"num_deleted":"0","num_feature":"10","num_nodes":"9","size_leaf_vector":"0"}},{"base_weights":[6.351861E-2,-4.5496073E-1,7.5105116E-2,4.0725183E-2,1.9554752E-1,1.06302425E-1,-3.7440952E-2,-8.704524E-2,2.998016E-1],"categories":[],"categories_nodes":[],"categories_segments":[],"categories_sizes":[],"default_left":[1,0,1,1,1,0,0,0,0],"id":52,"left_children":[1,-1,3,5,7,-1,-1,-1,-1],"loss_changes":[2.5541368E0,0E0,1.6946044E0,1.6500533E0,2.708305E0,0E0,0E0,0E0,0E0],"parents":[2147483647,0,0,2,2,3,3,4,4],"right_children":[2,-1,4,6,8,-1,-1,-1,-1],"split_conditions":[1.4025E2,-1.4740728E-1,6.25E0,1.6275E2,1.3875E2,3.4441985E-2,-1.2130869E-2,-2.8202657E-2,9.7135715E-2],"split_indices":[2,0,7,2,4,0,0,0,0],"split_type":[0,0,0,0,0,0,0,0,0],"sum_hessian":[4.1847964E2,8.310935E0,4.101687E2,3.2012738E2,9.0041306E1,1.7388617E2,1.4624123E2,2.4310349E1,6.573096E1],"tree_param":{"num_deleted":"0","num_feature":"10","num_nodes":"9","size_leaf_vector":"0"}},{"base_weights":[-1.3703044E-2,6.633299E-2,-1.5790386E-1,-3.255269E-1,1.252002E-1,-2.663743E-1,5.2009523E-2,-4.9775603E-1,5.555635E-1,3.9677635E-1,5.9407618E-2,7.475118E-2,-3.5457852E-1,2.098212E-1,-4.5976374E-1],"categories":[],"categories_nodes":[],"categories_segments":[],"categories_sizes":[],"default_left":[1,1,1,1,1,1,1,0,0,0,0,0,0,0,0],"id":53,"left_children":[1,3,5,7,9,11,13,-1,-1,-1,-1,-1,-1,-1,-1],"loss_changes":[2.2348862E0,2.9160833E0,1.5869511E0,2.7891026E0,1.9256159E0,1.4019763E0,2.0650344E0,0E0,0E0,0E0,0E0,0E0,0E0,0E0,0E0],"parents":[2147483647,0,0,1,1,2,2,3,3,4,4,5,5,6,6],"right_children":[2,4,6,8,10,12,14,-1,-1,-1,-1,-1,-1,-1,-1],"split_conditions":[1.5775E2,1.4175E2,1.4191666E2,1.065E2,8.475E1,6.55E1,1.7725E2,-1.6127296E-1,1.8000257E-1,1.2855554E-1,1.9248068E-2,2.4219384E-2,-1.14883445E-1,6.798207E-2,-1.4896345E-1],"split_indices":[2,2,4,6,3,6,2,0,0,0,0,0,0,0,0],"split_type":[0,0,0,0,0,0,0,0,0,0,0,0,0,0,0],"sum_hessian":[1.917356E2,1.2364737E2,6.808822E1,1.5557342E1,1.0809003E2,4.4713856E1,2.3374365E1,1.3377478E1,2.179864E0,2.0098299E1,8.799173E1,9.217634E0,3.549622E1,1.8316313E1,5.0580525E0],"tree_param":{"num_deleted":"0","num_feature":"10","num_nodes":"15","size_leaf_vector":"0"}},{"base_weights":[4.1429177E-2,-4.224243E-1,8.169101E-2,-4.551739E-1,4.7980785E-2,4.7403693E-1,6.632409E-2,6.1790246E-1,4.8126582E-2,-2.613808E-1,8.64105E-2],"categories":[],"categories_nodes":[],"categories_segments":[],"categories_sizes":[],"default_left":[1,1,1,0,0,1,1,0,0,0,0],"id":54,"left_children":[1,3,5,-1,-1,7,9,-1,-1,-1,-1],"loss_changes":[5.9497867E0,4.1404676E-1,1.730758E0,0E0,0E0,6.352985E-1,1.8816323E0,0E0,0E0,0E0,0E0],"parents":[2147483647,0,0,1,1,2,2,5,5,6,6],"right_children":[2,4,6,-1,-1,8,10,-1,-1,-1,-1],"split_conditions":[1.5225E2,1.0625E2,1.345E2,-1.4747635E-1,1.5545774E-2,4.75E0,7.925E1,2.002004E-1,1.5593013E-2,-8.4687375E-2,2.7997002E-2],"split_indices":[2,3,4,0,0,5,3,0,0,0,0],"split_type":[0,0,0,0,0,0,0,0,0,0,0],"sum_hessian":[3.1573843E2,2.4458786E1,2.9127966E2,2.289707E1,1.5617162E0,9.85351E0,2.8142615E2,7.0285883E0,2.8249223E0,1.5559756E1,2.658664E2],"tree_param":{"num_deleted":"0","num_feature":"10","num_nodes":"11","size_leaf_vector":"0"}},{"base_weights":[-1.515774E-1,1.3489962E-1,-4.987154E-1,1.6114399E-1,-4.641999E-1,2.1782522E-1,-1.4203264E-1],"categories":[],"categories_nodes":[],"categories_segments":[],"categories_sizes":[],"default_left":[1,1,0,1,0,0,0],"id":55,"left_children":[1,3,-1,5,-1,-1,-1],"loss_changes":[9.193371E0,8.776842E-1,0E0,8.84375E-1,0E0,0E0,0E0],"parents":[2147483647,0,0,1,1,3,3],"right_children":[2,4,-1,6,-1,-1,-1],"split_conditions":[1.4025E2,1.37E2,-1.615838E-1,9.775E1,-1.5040077E-1,7.057537E-2,-4.6018574E-2],"split_indices":[2,6,0,3,0,0,0],"split_type":[0,0,0,0,0,0,0],"sum_hessian":[9.076837E1,5.0064137E1,4.0704235E1,4.8663395E1,1.400744E0,4.1235603E1,7.427792E0],"tree_param":{"num_deleted":"0","num_feature":"10","num_nodes":"7","size_leaf_vector":"0"}},{"base_weights":[-2.2449662E-1,9.99935E-2,-4.987154E-1,5.2288644E-2,6.049321E-1,1.2812999E-1,-4.4951668E-1],"categories":[],"categories_nodes":[],"categories_segments":[],"categories_sizes":[],"default_left":[1,1,0,1,0,0,0],"id":56,"left_children":[1,3,-1,5,-1,-1,-1],"loss_changes":[6.8693337E0,8.339741E-1,0E0,1.348805E0,0E0,0E0,0E0],"parents":[2147483647,0,0,1,1,3,3],"right_children":[2,4,-1,6,-1,-1,-1],"split_conditions":[1.4025E2,1.105E2,-1.615838E-1,6.45E1,1.9599801E-1,4.1514117E-2,-1.4564341E-1],"split_indices":[2,6,0,1,0,0,0],"split_type":[0,0,0,0,0,0,0],"sum_hessian":[7.563933E1,3.493509E1,4.0704235E1,3.2927746E1,2.007345E0,2.9251434E1,3.6763117E0],"tree_param":{"num_deleted":"0","num_feature":"10","num_nodes":"7","size_leaf_vector":"0"}},{"base_weights":[5.2287847E-2,-4.431381E-1,6.171846E-2,6.897621E-2,-4.8450518E-1,-6.3212097E-1,7.442034E-2,-9.311506E-2,-6.6215026E-1],"categories":[],"categories_nodes":[],"categories_segments":[],"categories_sizes":[],"default_left":[1,0,1,1,1,0,0,0,0],"id":57,"left_children":[1,-1,3,5,7,-1,-1,-1,-1],"loss_changes":[1.9557796E0,0E0,1.6426148E0,1.5793945E0,3.170911E-1,0E0,0E0,0E0,0E0],"parents":[2147483647,0,0,2,2,3,3,4,4],"right_children":[2,-1,4,6,8,-1,-1,-1,-1],"split_conditions":[1.4025E2,-1.4357674E-1,1.365E2,6.475E1,7.525E1,-2.0480719E-1,2.4112191E-2,-3.016928E-2,-2.1453668E-1],"split_indices":[2,0,6,3,3,0,0,0,0],"split_type":[0,0,0,0,0,0,0,0,0],"sum_hessian":[4.1174832E2,6.8322988E0,4.0491602E2,4.0046866E2,4.4473634E0,2.1987782E0,3.9826987E2,1.8642299E0,2.5831335E0],"tree_param":{"num_deleted":"0","num_feature":"10","num_nodes":"9","size_leaf_vector":"0"}},{"base_weights":[-1.8913605E-3,6.8929054E-2,-1.3512589E-1,-4.4702187E-1,1.0476829E-1,-1.5906523E-1,6.55428E-1,6.261277E-2,5.2200836E-1,1.8523116E-2,-2.6916373E-1],"categories":[],"categories_nodes":[],"categories_segments":[],"categories_sizes":[],"default_left":[1,1,1,0,1,1,0,0,0,0,0],"id":58,"left_children":[1,3,5,-1,7,9,-1,-1,-1,-1,-1],"loss_changes":[1.7853043E0,2.3315694E0,1.3469386E0,0E0,2.0136585E0,1.2668297E0,0E0,0E0,0E0,0E0,0E0],"parents":[2147483647,0,0,1,1,2,2,4,4,5,5],"right_children":[2,4,6,-1,8,10,-1,-1,-1,-1,-1],"split_conditions":[1.5775E2,1.4025E2,4.95E0,-1.4483508E-1,1.085E2,4.95E0,2.1235867E-1,2.0286538E-2,1.6913071E-1,6.0014897E-3,-8.7209046E-2],"split_indices":[2,2,5,0,3,7,0,0,0,0,0],"split_type":[0,0,0,0,0,0,0,0,0,0,0],"sum_hessian":[1.872198E2,1.2255742E2,6.466238E1,7.2150283E0,1.1534239E2,6.3537155E1,1.1252223E0,1.0580276E2,9.539634E0,2.463415E1,3.8903008E1],"tree_param":{"num_deleted":"0","num_feature":"10","num_nodes":"11","size_leaf_vector":"0"}},{"base_weights":[3.180033E-2,-4.7953013E-1,6.1189584E-2,6.852624E-2,-6.46364E-1,3.1085538E-2,2.3555198E-1],"categories":[],"categories_nodes":[],"categories_segments":[],"categories_sizes":[],"default_left":[1,0,1,1,0,0,0],"id":59,"left_children":[1,-1,3,5,-1,-1,-1],"loss_changes":[4.702765E0,0E0,1.5755186E0,1.8240312E0,0E0,0E0,0E0],"parents":[2147483647,0,0,2,2,3,3],"right_children":[2,-1,4,6,-1,-1,-1],"split_conditions":[1.5075E2,-1.5536776E-1,8.299999E0,9.65E1,-2.0942193E-1,1.0071714E-2,7.6318845E-2],"split_indices":[2,0,7,6,0,0,0],"split_type":[0,0,0,0,0,0,0],"sum_hessian":[3.0998886E2,1.6016062E1,2.939728E2,2.9184973E2,2.123052E0,2.3937685E2,5.2472897E1],"tree_param":{"num_deleted":"0","num_feature":"10","num_nodes":"7","size_leaf_vector":"0"}},{"base_weights":[-1.4975335E-1,1.0598156E-1,-4.947755E-1,3.1375572E-1,2.3303121E-2,-2.1757925E-1,4.2476633E-1,-1.828854E-1,1.3583937E-1],"categories":[],"categories_nodes":[],"categories_segments":[],"categories_sizes":[],"default_left":[1,1,0,1,1,0,0,0,0],"id":60,"left_children":[1,3,-1,5,7,-1,-1,-1,-1],"loss_changes":[7.339121E0,8.215872E-1,0E0,8.9784217E-1,8.508315E-1,0E0,0E0,0E0,0E0],"parents":[2147483647,0,0,1,1,3,3,4,4],"right_children":[2,4,-1,6,8,-1,-1,-1,-1],"split_conditions":[1.4025E2,4.15E1,-1.6030726E-1,4E0,1.385E2,-7.049567E-2,1.376243E-1,-5.9254866E-2,4.4011958E-2],"split_indices":[2,1,0,7,4,0,0,0,0],"split_type":[0,0,0,0,0,0,0,0,0],"sum_hessian":[8.158343E1,4.7252262E1,3.4331165E1,1.2654961E1,3.45973E1,2.0211337E0,1.0633827E1,1.1994994E1,2.2602308E1],"tree_param":{"num_deleted":"0","num_feature":"10","num_nodes":"9","size_leaf_vector":"0"}},{"base_weights":[-1.9860065E-1,1.0047872E-1,-4.947755E-1,-1.6715474E-1,1.856918E-1,3.8313457E-1,-3.3460978E-1,-4.235813E-1,2.3935132E-1],"categories":[],"categories_nodes":[],"categories_segments":[],"categories_sizes":[],"default_left":[1,1,0,1,1,0,0,0,0],"id":61,"left_children":[1,3,-1,5,7,-1,-1,-1,-1],"loss_changes":[6.2488155E0,8.441161E-1,0E0,9.700998E-1,1.0009661E0,0E0,0E0,0E0,0E0],"parents":[2147483647,0,0,1,1,3,3,4,4],"right_children":[2,4,-1,6,8,-1,-1,-1,-1],"split_conditions":[1.4025E2,4.15E1,-1.6030726E-1,4E0,1.355E2,1.241356E-1,-1.0841357E-1,-1.3724034E-1,7.754983E-2],"split_indices":[2,1,0,7,4,0,0,0,0],"split_type":[0,0,0,0,0,0,0,0,0],"sum_hessian":[6.898325E1,3.4652084E1,3.4331165E1,8.136311E0,2.6515774E1,1.5977648E0,6.538546E0,1.5882485E0,2.4927526E1],"tree_param":{"num_deleted":"0","num_feature":"10","num_nodes":"9","size_leaf_vector":"0"}},{"base_weights":[4.1932084E-2,-4.3108544E-1,4.9689937E-2,1.0459632E-1,-1.60783E-2,1.7402793E-1,-5.1152036E-2,-1.4635557E-1,7.740911E-2],"categories":[],"categories_nodes":[],"categories_segments":[],"categories_sizes":[],"default_left":[1,0,1,1,1,0,0,0,0],"id":62,"left_children":[1,-1,3,5,7,-1,-1,-1,-1],"loss_changes":[1.5217284E0,0E0,1.4574847E0,2.386332E0,2.2559323E0,0E0,0E0,0E0,0E0],"parents":[2147483647,0,0,2,2,3,3,4,4],"right_children":[2,-1,4,6,8,-1,-1,-1,-1],"split_conditions":[1.4025E2,-1.3967168E-1,5E-1,1.0175E2,4.208333E0,5.638505E-2,-1.657326E-2,-4.7419205E-2,2.5080552E-2],"split_indices":[2,0,0,3,5,0,0,0,0],"split_type":[0,0,0,0,0,0,0,0,0],"sum_hessian":[4.078477E2,5.700573E0,4.021471E2,2.1885031E2,1.8329678E2,1.512892E2,6.756111E1,7.6343925E1,1.0695286E2],"tree_param":{"num_deleted":"0","num_feature":"10","num_nodes":"9","size_leaf_vector":"0"}},{"base_weights":[4.039922E-3,-7.0454195E-2,1.0777884E-1,-1.8577349E-1,1.4200187E-1,7.470669E-1,6.4844534E-2,-2.542344E-1,9.0366876E-1,3.159319E-1,-2.222989E-1,8.232069E-2,9.8337835E-1,7.291329E-1,1.9091789E-2],"categories":[],"categories_nodes":[],"categories_segments":[],"categories_sizes":[],"default_left":[1,1,1,1,1,1,1,0,0,0,0,0,0,0,0],"id":63,"left_children":[1,3,5,7,9,11,13,-1,-1,-1,-1,-1,-1,-1,-1],"loss_changes":[1.4378606E0,2.6804314E0,2.085594E0,5.498998E0,2.5210395E0,6.727514E-1,2.2337065E0,0E0,0E0,0E0,0E0,0E0,0E0,0E0,0E0],"parents":[2147483647,0,0,1,1,2,2,3,3,4,4,5,5,6,6],"right_children":[2,4,6,8,10,12,14,-1,-1,-1,-1,-1,-1,-1,-1],"split_conditions":[9.925E1,8.75E1,9.975E1,7.95E1,1.5575E2,5.25E1,3.75E0,-8.237195E-2,2.9278868E-1,1.0236193E-1,-7.2024845E-2,2.6671903E-2,3.1861457E-1,2.3623906E-1,6.1857398E-3],"split_indices":[3,6,3,1,2,1,7,0,0,0,0,0,0,0,0],"split_type":[0,0,0,0,0,0,0,0,0,0,0,0,0,0,0],"sum_hessian":[1.8407744E2,1.07327354E2,7.675009E1,6.96484E1,3.7678955E1,3.7979987E0,7.2952095E1,6.6251755E1,3.3966439E0,2.5592813E1,1.208614E1,1.3496835E0,2.4483151E0,3.7383444E0,6.9213745E1],"tree_param":{"num_deleted":"0","num_feature":"10","num_nodes":"15","size_leaf_vector":"0"}},{"base_weights":[2.7206313E-2,-4.727351E-1,5.1611975E-2,4.1356027E-2,5.48706E-1,1.0868289E-1,-4.0861256E-2],"categories":[],"categories_nodes":[],"categories_segments":[],"categories_sizes":[],"default_left":[1,0,1,1,0,0,0],"id":64,"left_children":[1,-1,3,5,-1,-1,-1],"loss_changes":[3.7800927E0,0E0,1.4781227E0,1.6070242E0,0E0,0E0,0E0],"parents":[2147483647,0,0,2,2,3,3],"right_children":[2,-1,4,6,-1,-1,-1],"split_conditions":[1.5075E2,-1.5316617E-1,2.0975E2,5E-1,1.7778075E-1,3.5213258E-2,-1.32390475E-2],"split_indices":[2,0,2,9,0,0,0],"split_type":[0,0,0,0,0,0,0],"sum_hessian":[3.0680835E2,1.3425329E1,2.9338303E2,2.8851367E2,4.869364E0,1.5844382E2,1.3006985E2],"tree_param":{"num_deleted":"0","num_feature":"10","num_nodes":"7","size_leaf_vector":"0"}},{"base_weights":[-1.3748707E-1,9.3483806E-2,-4.9083444E-1,2.6944622E-1,1.4754506E-2,-2.2822113E-1,3.7306985E-1,1.1033304E-1,-2.764669E-1],"categories":[],"categories_nodes":[],"categories_segments":[],"categories_sizes":[],"default_left":[1,1,0,1,1,0,0,0,0],"id":65,"left_children":[1,3,-1,5,7,-1,-1,-1,-1],"loss_changes":[6.212401E0,6.406408E-1,0E0,8.239168E-1,9.547664E-1,0E0,0E0,0E0,0E0],"parents":[2147483647,0,0,1,1,3,3,4,4],"right_children":[2,4,-1,6,8,-1,-1,-1,-1],"split_conditions":[1.4025E2,4.25E0,-1.5903036E-1,3.55E0,1.3825E2,-7.3943645E-2,1.20874636E-1,3.5747904E-2,-8.9575276E-2],"split_indices":[2,5,0,7,2,0,0,0,0],"split_type":[0,0,0,0,0,0,0,0,0],"sum_hessian":[7.455805E1,4.5531277E1,2.9026777E1,1.3325634E1,3.2205643E1,2.08926E0,1.1236374E1,2.471526E1,7.4903827E0],"tree_param":{"num_deleted":"0","num_feature":"10","num_nodes":"9","size_leaf_vector":"0"}},{"base_weights":[-1.7801659E-1,9.041751E-2,-4.9083444E-1,-4.219798E-1,1.2929052E-1,6.4344376E-1,8.284346E-2],"categories":[],"categories_nodes":[],"categories_segments":[],"categories_sizes":[],"default_left":[1,1,0,0,1,0,0],"id":66,"left_children":[1,3,-1,-1,5,-1,-1],"loss_changes":[5.4757442E0,7.6474285E-1,0E0,0E0,7.563994E-1,0E0,0E0],"parents":[2147483647,0,0,1,1,4,4],"right_children":[2,4,-1,-1,6,-1,-1],"split_conditions":[1.4025E2,1.355E2,-1.5903036E-1,-1.3672146E-1,1.365E2,2.0847578E-1,2.6841281E-2],"split_indices":[2,4,0,0,4,0,0],"split_type":[0,0,0,0,0,0,0],"sum_hessian":[6.3681442E1,3.4654667E1,2.9026777E1,1.7487323E0,3.2905933E1,1.6614105E0,3.1244522E1],"tree_param":{"num_deleted":"0","num_feature":"10","num_nodes":"7","size_leaf_vector":"0"}},{"base_weights":[3.2132387E-2,-5.877661E-1,3.7217453E-2,4.370873E-2,-4.4737518E-1,7.2739637E-1,3.7940897E-2,-6.4459217E-1,-1.21446095E-1],"categories":[],"categories_nodes":[],"categories_segments":[],"categories_sizes":[],"default_left":[1,0,1,1,1,0,0,0,0],"id":67,"left_children":[1,-1,3,5,7,-1,-1,-1,-1],"loss_changes":[1.2930343E0,0E0,1.2806889E0,1.5360719E0,2.6807845E-1,0E0,0E0,0E0,0E0],"parents":[2147483647,0,0,2,2,3,3,4,4],"right_children":[2,-1,4,6,8,-1,-1,-1,-1],"split_conditions":[6.475E1,-1.9043621E-1,1.365E2,6.725E1,1.425E2,2.3567642E-1,1.2292851E-2,-2.0884787E-1,-3.9348535E-2],"split_indices":[3,0,6,3,6,0,0,0,0],"split_type":[0,0,0,0,0,0,0,0,0],"sum_hessian":[4.0225766E2,2.340584E0,3.9991708E2,3.9552866E2,4.388432E0,2.2622423E0,3.9326642E2,2.124941E0,2.2634907E0],"tree_param":{"num_deleted":"0","num_feature":"10","num_nodes":"9","size_leaf_vector":"0"}},{"base_weights":[9.075861E-3,4.6866663E-2,-2.0689331E-1,-4.3218094E-1,6.796775E-2,-2.721257E-1,3.1397E-1,3.4536473E-2,3.1170604E-1,-4.309323E-1,9.9282645E-2,4.846941E-1,2.6843876E-2],"categories":[],"categories_nodes":[],"categories_segments":[],"categories_sizes":[],"default_left":[1,1,1,0,1,1,1,0,0,0,0,0,0],"id":68,"left_children":[1,3,5,-1,7,9,11,-1,-1,-1,-1,-1,-1],"loss_changes":[1.4989522E0,1.607413E0,1.0150115E0,0E0,1.2146775E0,1.5084544E0,1.5901384E-1,0E0,0E0,0E0,0E0,0E0,0E0],"parents":[2147483647,0,0,1,1,2,2,4,4,5,5,6,6],"right_children":[2,4,6,-1,8,10,12,-1,-1,-1,-1,-1,-1],"split_conditions":[1.6825E2,1.4025E2,1.265E2,-1.4002663E-1,6.6499996E0,1.1175E2,5E-1,1.1189817E-2,1.00992754E-1,-1.3962206E-1,3.2167576E-2,1.570409E-1,8.697416E-3],"split_indices":[2,2,6,0,7,3,0,0,0,0,0,0,0],"split_type":[0,0,0,0,0,0,0,0,0,0,0,0,0],"sum_hessian":[1.8146997E2,1.5511122E2,2.635874E1,5.72217E0,1.4938905E2,2.3849413E1,2.5093272E0,1.3237424E2,1.7014828E1,1.6593925E1,7.255488E0,1.1421322E0,1.367195E0],"tree_param":{"num_deleted":"0","num_feature":"10","num_nodes":"13","size_leaf_vector":"0"}},{"base_weights":[2.3903718E-2,-4.6542352E-1,4.427057E-2,6.1141852E-2,-2.408785E-1,4.564349E-1,4.849948E-2,-7.5447666E-3,-4.6512038E-1],"categories":[],"categories_nodes":[],"categories_segments":[],"categories_sizes":[],"default_left":[1,0,1,1,1,0,0,0,0],"id":69,"left_children":[1,-1,3,5,7,-1,-1,-1,-1],"loss_changes":[3.0595376E0,0E0,1.4274608E0,1.3674035E0,8.653973E-1,0E0,0E0,0E0,0E0],"parents":[2147483647,0,0,2,2,3,3,4,4],"right_children":[2,-1,4,6,8,-1,-1,-1,-1],"split_conditions":[1.5075E2,-1.5079722E-1,4.8500004E0,1.345E2,9.775E1,1.478849E-1,1.5713831E-2,-2.4445043E-3,-1.50699E-1],"split_indices":[2,0,5,4,3,0,0,0,0],"split_type":[0,0,0,0,0,0,0,0,0],"sum_hessian":[3.0392834E2,1.12714815E1,2.9265686E2,2.7705035E2,1.5606525E1,7.498199E0,2.6955215E2,8.154769E0,7.4517565E0],"tree_param":{"num_deleted":"0","num_feature":"10","num_nodes":"9","size_leaf_vector":"0"}},{"base_weights":[-1.2783863E-1,7.9643056E-2,-4.8680604E-1,1.29174E-1,-1.6902575E-1,4.6657032E-1,6.0052324E-2,-8.020113E-1,4.912479E-2],"categories":[],"categories_nodes":[],"categories_segments":[],"categories_sizes":[],"default_left":[1,1,0,1,1,0,0,0,0],"id":70,"left_children":[1,3,-1,5,7,-1,-1,-1,-1],"loss_changes":[5.2253237E0,5.759644E-1,0E0,8.601498E-1,1.1311054E0,0E0,0E0,0E0,0E0],"parents":[2147483647,0,0,1,1,3,3,4,4],"right_children":[2,4,-1,6,8,-1,-1,-1,-1],"split_conditions":[1.4025E2,9.775E1,-1.5772516E-1,3.75E1,4.45E0,1.5116878E-1,1.9456953E-2,-2.5985166E-1,1.5916431E-2],"split_indices":[2,3,0,1,7,0,0,0,0],"split_type":[0,0,0,0,0,0,0,0,0],"sum_hessian":[6.863764E1,4.398983E1,2.4647808E1,3.7083847E1,6.905984E0,5.327805E0,3.1756042E1,1.0840608E0,5.821923E0],"tree_param":{"num_deleted":"0","num_feature":"10","num_nodes":"9","size_leaf_vector":"0"}},{"base_weights":[-1.5655299E-1,8.675429E-2,-4.8680604E-1,1.2749636E-1,-3.8641003E-1,7.684163E-1,5.4598384E-2],"categories":[],"categories_nodes":[],"categories_segments":[],"categories_sizes":[],"default_left":[1,1,0,1,0,0,0],"id":71,"left_children":[1,3,-1,5,-1,-1,-1],"loss_changes":[4.8717904E0,7.3278487E-1,0E0,1.5184325E0,0E0,0E0,0E0],"parents":[2147483647,0,0,1,1,3,3],"right_children":[2,4,-1,6,-1,-1,-1],"split_conditions":[1.4025E2,5E-1,-1.5772516E-1,7.25E1,-1.2519684E-1,2.4896687E-1,1.7689876E-2],"split_indices":[2,8,0,3,0,0,0],"split_type":[0,0,0,0,0,0,0],"sum_hessian":[5.910429E1,3.4456482E1,2.4647808E1,3.239743E1,2.0590522E0,2.334193E0,3.0063236E1],"tree_param":{"num_deleted":"0","num_feature":"10","num_nodes":"7","size_leaf_vector":"0"}},{"base_weights":[2.6955007E-2,2.1583444E-2,6.361912E-1,3.184432E-2,-3.818575E-1,1.387957E-2,4.2216203E-1,-6.553382E-1,5.4712766E-1],"categories":[],"categories_nodes":[],"categories_segments":[],"categories_sizes":[],"default_left":[1,1,0,1,1,0,0,0,0],"id":72,"left_children":[1,3,-1,5,7,-1,-1,-1,-1],"loss_changes":[1.3009784E0,1.6649703E0,0E0,2.7307878E0,2.893996E0,0E0,0E0,0E0,0E0],"parents":[2147483647,0,0,1,1,3,3,4,4],"right_children":[2,4,-1,6,8,-1,-1,-1,-1],"split_conditions":[8.5E0,7.45E0,2.0612594E-1,7.05E0,1.085E2,4.496981E-3,1.367805E-1,-2.1232958E-1,1.7726937E-1],"split_indices":[7,7,0,7,3,0,0,0,0],"split_type":[0,0,0,0,0,0,0,0,0],"sum_hessian":[4.0073846E2,3.9826245E2,2.476006E0,3.8928275E2,8.979717E0,3.7314398E2,1.6138754E1,7.165003E0,1.8147149E0],"tree_param":{"num_deleted":"0","num_feature":"10","num_nodes":"9","size_leaf_vector":"0"}},{"base_weights":[9.386561E-3,2.5273912E-2,-4.440866E-1,6.5711624E-4,3.414381E-1,1.7962676E-2,-3.925943E-1,5.850225E-1,-7.130608E-2],"categories":[],"categories_nodes":[],"categories_segments":[],"categories_sizes":[],"default_left":[1,1,0,1,1,0,0,0,0],"id":73,"left_children":[1,3,-1,5,7,-1,-1,-1,-1],"loss_changes":[1.3167367E0,1.3697362E0,0E0,1.1252366E0,1.3198738E0,0E0,0E0,0E0,0E0],"parents":[2147483647,0,0,1,1,3,3,4,4],"right_children":[2,4,-1,6,8,-1,-1,-1,-1],"split_conditions":[1.8875E2,1.1175E2,-1.4388406E-1,1.445E2,1.405E2,5.819907E-3,-1.2720056E-1,1.895473E-1,-2.310317E-2],"split_indices":[2,3,0,4,4,0,0,0,0],"split_type":[0,0,0,0,0,0,0,0,0],"sum_hessian":[1.802083E2,1.7502074E2,5.1875544E0,1.6330756E2,1.1713178E1,1.5733801E2,5.9695487E0,7.1035576E0,4.60962E0],"tree_param":{"num_deleted":"0","num_feature":"10","num_nodes":"9","size_leaf_vector":"0"}},{"base_weights":[1.9126061E-2,-4.5775616E-1,3.623463E-2,6.312178E-2,-1.2447004E-1,-2.4847053E-1,8.530979E-2,2.8892535E-1,-2.9195353E-1],"categories":[],"categories_nodes":[],"categories_segments":[],"categories_sizes":[],"default_left":[1,0,1,1,1,0,0,0,0],"id":74,"left_children":[1,-1,3,5,7,-1,-1,-1,-1],"loss_changes":[2.4831088E0,0E0,1.2728916E0,1.7597836E0,3.012995E0,0E0,0E0,0E0,0E0],"parents":[2147483647,0,0,2,2,3,3,4,4],"right_children":[2,-1,4,6,8,-1,-1,-1,-1],"split_conditions":[1.5075E2,-1.48313E-1,6.5699997E0,7.925E1,1.3875E2,-8.0504455E-2,2.764037E-2,9.3611814E-2,-9.4592944E-2],"split_indices":[2,0,7,3,4,0,0,0,0],"split_type":[0,0,0,0,0,0,0,0,0],"sum_hessian":[3.0131537E2,9.543551E0,2.9177182E2,2.5047295E2,4.1298866E1,1.597222E1,2.3450073E2,1.1698543E1,2.9600325E1],"tree_param":{"num_deleted":"0","num_feature":"10","num_nodes":"9","size_leaf_vector":"0"}},{"base_weights":[-1.1344539E-1,7.30746E-2,-4.8255178E-1,9.8171815E-2,-3.802907E-1,1.7981595E-1,-1.1469664E-1],"categories":[],"categories_nodes":[],"categories_segments":[],"categories_sizes":[],"default_left":[1,1,0,1,0,0,0],"id":75,"left_children":[1,3,-1,5,-1,-1,-1],"loss_changes":[4.514345E0,5.389772E-1,0E0,7.604734E-1,0E0,0E0,0E0],"parents":[2147483647,0,0,1,1,3,3],"right_children":[2,4,-1,6,-1,-1,-1],"split_conditions":[1.4025E2,1.37E2,-1.5634678E-1,4.55E0,-1.23214185E-1,5.8260366E-2,-3.716171E-2],"split_indices":[2,6,0,5,0,0,0],"split_type":[0,0,0,0,0,0,0],"sum_hessian":[6.405971E1,4.3088093E1,2.0971617E1,4.1570316E1,1.5177733E0,3.0158514E1,1.1411804E1],"tree_param":{"num_deleted":"0","num_feature":"10","num_nodes":"7","size_leaf_vector":"0"}},{"base_weights":[-1.3546875E-1,8.44984E-2,-4.8255178E-1,1.2015716E-1,-3.6596477E-1,6.1608464E-1,5.6750074E-2],"categories":[],"categories_nodes":[],"categories_segments":[],"categories_sizes":[],"default_left":[1,1,0,1,0,0,0],"id":76,"left_children":[1,3,-1,5,-1,-1,-1],"loss_changes":[4.335758E0,6.107477E-1,0E0,1.016856E0,0E0,0E0,0E0],"parents":[2147483647,0,0,1,1,3,3],"right_children":[2,4,-1,6,-1,-1,-1],"split_conditions":[1.4025E2,5E-1,-1.5634678E-1,7.25E1,-1.18572585E-1,1.9961143E-1,1.8387023E-2],"split_indices":[2,8,0,3,0,0,0],"split_type":[0,0,0,0,0,0,0],"sum_hessian":[5.5256176E1,3.428456E1,2.0971617E1,3.244914E1,1.835422E0,2.6903894E0,2.9758749E1],"tree_param":{"num_deleted":"0","num_feature":"10","num_nodes":"7","size_leaf_vector":"0"}},{"base_weights":[2.1794995E-2,-5.4839444E-1,2.6518172E-2,-6.345431E-2,5.77392E-2,2.9748349E-2,-3.253583E-1,1.22742765E-1,-2.6388556E-2],"categories":[],"categories_nodes":[],"categories_segments":[],"categories_sizes":[],"default_left":[1,0,1,1,1,0,0,0,0],"id":77,"left_children":[1,-1,3,5,7,-1,-1,-1,-1],"loss_changes":[1.0886822E0,0E0,1.117516E0,2.5148058E0,1.6159232E0,0E0,0E0,0E0,0E0],"parents":[2147483647,0,0,2,2,3,3,4,4],"right_children":[2,-1,4,6,8,-1,-1,-1,-1],"split_conditions":[6.475E1,-1.776798E-1,4.85E1,1.415E2,6.45E1,9.638465E-3,-1.0541609E-1,3.9768655E-2,-8.549892E-3],"split_indices":[3,0,1,4,1,0,0,0,0],"split_type":[0,0,0,0,0,0,0,0,0],"sum_hessian":[3.97848E2,2.3228488E0,3.9552515E2,1.01626465E2,2.9389868E2,7.560696E1,2.601951E1,1.6553477E2,1.283639E2],"tree_param":{"num_deleted":"0","num_feature":"10","num_nodes":"9","size_leaf_vector":"0"}},{"base_weights":[9.499017E-3,3.1059261E-2,-2.864235E-1,8.0026295E-3,3.5982272E-1,-4.6726108E-1,1.1607526E-1,-4.1688365E-1,2.3492748E-2,1.2854372E-1,9.9941266E-1,3.363072E-1,-3.030509E-1],"categories":[],"categories_nodes":[],"categories_segments":[],"categories_sizes":[],"default_left":[1,1,1,1,1,0,1,0,0,0,0,0,0],"id":78,"left_children":[1,3,5,7,9,-1,11,-1,-1,-1,-1,-1,-1],"loss_changes":[1.1606485E0,1.279413E0,9.5366514E-1,1.0569193E0,1.50808E0,0E0,5.294521E-1,0E0,0E0,0E0,0E0,0E0,0E0],"parents":[2147483647,0,0,1,1,2,2,3,3,4,4,6,6],"right_children":[2,4,6,8,10,-1,12,-1,-1,-1,-1,-1,-1],"split_conditions":[1.7875E2,1.1175E2,9.45E1,1.4025E2,1.7525E2,-1.513926E-1,4.4083333E0,-1.3507031E-1,7.6116505E-3,4.1648164E-2,3.238097E-1,1.08963534E-1,-9.81885E-2],"split_indices":[2,3,6,2,2,0,5,0,0,0,0,0,0],"split_type":[0,0,0,0,0,0,0,0,0,0,0,0,0],"sum_hessian":[1.7952089E2,1.681639E2,1.1356998E1,1.5810043E2,1.0063458E1,7.7252436E0,3.6317546E0,4.649661E0,1.5345078E2,8.27291E0,1.7905483E0,2.5103028E0,1.1214519E0],"tree_param":{"num_deleted":"0","num_feature":"10","num_nodes":"13","size_leaf_vector":"0"}},{"base_weights":[1.5316637E-2,-4.495462E-1,2.9794022E-2,2.1391459E-2,4.9968112E-1,7.798989E-2,-4.815521E-2],"categories":[],"categories_nodes":[],"categories_segments":[],"categories_sizes":[],"default_left":[1,0,1,1,0,0,0],"id":79,"left_children":[1,-1,3,5,-1,-1,-1],"loss_changes":[2.0319662E0,0E0,1.1414734E0,1.1363419E0,0E0,0E0,0E0],"parents":[2147483647,0,0,2,2,3,3],"right_children":[2,-1,4,6,-1,-1,-1],"split_conditions":[1.5075E2,-1.4565296E-1,2.0975E2,5E-1,1.6189668E-1,2.5268724E-2,-1.5602289E-2],"split_indices":[2,0,2,9,0,0,0],"split_type":[0,0,0,0,0,0,0],"sum_hessian":[2.9893655E2,8.12106E0,2.908155E2,2.8673364E2,4.081872E0,1.5801585E2,1.2871777E2],"tree_param":{"num_deleted":"0","num_feature":"10","num_nodes":"7","size_leaf_vector":"0"}},{"base_weights":[-1.0386022E-1,6.230759E-2,-4.779917E-1,1.1178244E-1,-1.794064E-1,-7.427522E-2,2.1948239E-1,8.152888E-2,-6.2706447E-1],"categories":[],"categories_nodes":[],"categories_segments":[],"categories_sizes":[],"default_left":[1,1,0,1,1,0,0,0,0],"id":80,"left_children":[1,3,-1,5,7,-1,-1,-1,-1],"loss_changes":[3.8213718E0,5.3567475E-1,0E0,7.4583745E-1,9.516871E-1,0E0,0E0,0E0,0E0],"parents":[2147483647,0,0,1,1,3,3,4,4],"right_children":[2,4,-1,6,8,-1,-1,-1,-1],"split_conditions":[1.4025E2,9.775E1,-1.5486932E-1,1.385E2,1.415E2,-2.406517E-2,7.11123E-2,2.6415357E-2,-2.0316888E-1],"split_indices":[2,3,0,4,4,0,0,0,0],"split_type":[0,0,0,0,0,0,0,0,0],"sum_hessian":[5.9988808E1,4.211652E1,1.787229E1,3.5406864E1,6.7096562E0,1.3094953E1,2.231191E1,4.7555637E0,1.9540924E0],"tree_param":{"num_deleted":"0","num_feature":"10","num_nodes":"9","size_leaf_vector":"0"}},{"base_weights":[-1.15623E-1,8.169721E-2,-4.779917E-1,-3.7672317E-1,1.1319488E-1,4.645579E-2,3.8348448E-1],"categories":[],"categories_nodes":[],"categories_segments":[],"categories_sizes":[],"default_left":[1,1,0,0,1,0,0],"id":81,"left_children":[1,3,-1,-1,5,-1,-1],"loss_changes":[3.8370056E0,5.5153704E-1,0E0,0E0,5.9094375E-1,0E0,0E0],"parents":[2147483647,0,0,1,1,4,4],"right_children":[2,4,-1,-1,6,-1,-1],"split_conditions":[1.4025E2,1.355E2,-1.5486932E-1,-1.2205831E-1,9.775E1,1.5051676E-2,1.24248974E-1],"split_indices":[2,4,0,0,3,0,0],"split_type":[0,0,0,0,0,0,0],"sum_hessian":[5.2116272E1,3.424398E1,1.787229E1,1.4969442E0,3.2747036E1,2.720222E1,5.544816E0],"tree_param":{"num_deleted":"0","num_feature":"10","num_nodes":"7","size_leaf_vector":"0"}},{"base_weights":[1.7265169E-2,1.2601482E-2,5.6589705E-1,2.1583447E-2,-3.4123826E-1,7.106713E-3,3.4703296E-1,-5.8768666E-1,4.5408535E-1],"categories":[],"categories_nodes":[],"categories_segments":[],"categories_sizes":[],"default_left":[1,1,0,1,1,0,0,0,0],"id":82,"left_children":[1,3,-1,5,7,-1,-1,-1,-1],"loss_changes":[1.0085099E0,1.2615415E0,0E0,1.8151754E0,2.1933427E0,0E0,0E0,0E0,0E0],"parents":[2147483647,0,0,1,1,3,3,4,4],"right_children":[2,4,-1,6,8,-1,-1,-1,-1],"split_conditions":[8.5E0,7.45E0,1.8335064E-1,7.05E0,1.085E2,2.302575E-3,1.1243868E-1,-1.9041048E-1,1.4712365E-1],"split_indices":[7,7,0,7,3,0,0,0,0],"split_type":[0,0,0,0,0,0,0,0,0],"sum_hessian":[3.959445E2,3.9362143E2,2.3230398E0,3.8479276E2,8.828682E0,3.6938358E2,1.54091835E1,6.9394226E0,1.8892593E0],"tree_param":{"num_deleted":"0","num_feature":"10","num_nodes":"9","size_leaf_vector":"0"}},{"base_weights":[8.897986E-3,5.3549003E-2,-1.1749113E-1,-2.59356E-2,1.876964E-1,-1.7626587E-1,2.5049016E-1,-1.7714442E-1,2.1624725E-1,6.737978E-2,3.7024313E-1,-5.2143674E-2,-4.3841723E-1,4.1892955E-1,-3.3535692E-1],"categories":[],"categories_nodes":[],"categories_segments":[],"categories_sizes":[],"default_left":[1,1,1,1,1,1,1,0,0,0,0,0,0,0,0],"id":83,"left_children":[1,3,5,7,9,11,13,-1,-1,-1,-1,-1,-1,-1,-1],"loss_changes":[1.0197521E0,1.4271476E0,1.0648717E0,3.137781E0,1.0677437E0,1.3203893E0,8.2264876E-1,0E0,0E0,0E0,0E0,0E0,0E0,0E0,0E0],"parents":[2147483647,0,0,1,1,2,2,3,3,4,4,5,5,6,6],"right_children":[2,4,6,8,10,12,14,-1,-1,-1,-1,-1,-1,-1,-1],"split_conditions":[1.5975E2,9.925E1,1.135E2,8.75E1,1.5475E2,8.55E1,1.405E2,-5.7394795E-2,7.0064105E-2,2.1831049E-2,1.1995877E-1,-1.6894551E-2,-1.4204718E-1,1.3573317E-1,-1.0865564E-1],"split_indices":[2,3,6,6,2,6,6,0,0,0,0,0,0,0,0],"split_type":[0,0,0,0,0,0,0,0,0,0,0,0,0,0,0],"sum_hessian":[1.7858325E2,1.3238892E2,4.6194324E1,8.3638405E1,4.875051E1,4.0281475E1,5.912847E0,5.1655457E1,3.1982952E1,3.0208916E1,1.8541597E1,2.8151396E1,1.2130081E1,4.8137436E0,1.0991035E0],"tree_param":{"num_deleted":"0","num_feature":"10","num_nodes":"15","size_leaf_vector":"0"}},{"base_weights":[1.3503195E-2,-1.9716638E-1,4.1861445E-2,-4.9618804E-1,-8.174166E-2,7.685719E-1,2.9704146E-2,1.1346685E0,-2.0772253E-1,-7.014919E-2,7.8251906E-2],"categories":[],"categories_nodes":[],"categories_segments":[],"categories_sizes":[],"default_left":[1,1,1,0,1,0,1,0,0,0,0],"id":84,"left_children":[1,3,5,-1,7,-1,9,-1,-1,-1,-1],"loss_changes":[1.7888259E0,1.1859094E0,2.305218E0,0E0,4.348092E0,0E0,1.2669082E0,0E0,0E0,0E0,0E0],"parents":[2147483647,0,0,1,1,2,2,4,4,6,6],"right_children":[2,4,6,-1,8,-1,10,-1,-1,-1,-1],"split_conditions":[1.5575E2,8.975E1,2.95E1,-1.6076493E-1,9.075E1,2.490173E-1,7.15E1,3.676326E-1,-6.73021E-2,-2.2728337E-2,2.5353618E-2],"split_indices":[2,3,1,0,3,0,6,0,0,0,0],"split_type":[0,0,0,0,0,0,0,0,0,0,0],"sum_hessian":[2.9704257E2,3.4534893E1,2.625077E2,8.699356E0,2.5835535E1,3.2955425E0,2.5921216E2,1.6732053E0,2.416233E1,8.4652794E1,1.7455936E2],"tree_param":{"num_deleted":"0","num_feature":"10","num_nodes":"11","size_leaf_vector":"0"}}]},"name":"gbtree"},"learner_model_param":{"base_score":"5E-1","boost_from_average":"1","num_class":"5","num_feature":"10","num_target":"1"},"objective":{"name":"multi:softprob","softmax_multiclass_param":{"num_class":"5"}}},"version":[1,7,1]}